,0,1,2,3,4,5,6,7,8,9,10,11,12,13,14,15,16,17,18,19,20,21,22,23,24,25,26,27,28,29,30,31,32,33,34,35,36,37,38,39,40,41,42,43,44,45,46,47,48,49,50,51,52,53,54,55,56,57,58,59,60,61,62,63,64,65,66,67,68,69,70,71,72,73,74,75,76,77,78,79,80,81,82,83,84,85,86,87,88,89,90,91,92,93,94,95,96,97,98,99,100,101,102,103,104,105,106,107,108,109,110,111,112,113,114,115,116,117,118,119,120,121,122,123,124,125,126,127,128,129,130,131,132,133,134,135,136,137,138,139,140,141,142,143,144,145,146,147,148,149,150,151,152,153,154,155,156,157,158,159,160,161,162,163,164,165,166,167,168,169,170,171,172,173,174,175,176,177,178,179,180,181,182,183,184,185,186,187,188,189,190,191,192,193,194,195,196,197,198,199
like,0.069698386,-0.040803753,-0.03467228,0.13331777,0.10283863,-0.052209985,0.05263719,0.20111026,-0.05566876,-0.00072943594,-0.069727324,-0.03306492,0.03336538,0.09005539,-0.049768783,0.005840254,-0.0054245326,-0.0039964835,-0.008062,-0.14080206,0.058211394,-0.0861317,0.035104133,0.01846574,0.029961083,-0.01575561,0.064429104,-0.07116823,-0.098291434,0.0788707,0.09756889,0.06359098,0.034724154,0.008696923,-0.031397488,0.06623775,0.073226884,-0.10368986,-0.072344765,-0.07440658,-0.10320523,-0.009575858,-0.07824957,-0.002064866,0.08758651,-0.0112941405,0.0094208075,-0.08283926,0.048242703,0.04980379,0.03781855,-0.051567346,-0.052086633,0.011363741,0.096734166,-0.021194741,-0.056776717,-0.07368508,-0.08961606,0.011851045,-0.018714031,0.0025285159,-0.0020230135,-0.06254185,-0.16978298,-0.013631376,0.0077830106,0.12276723,-0.114855945,0.13899514,0.0077704596,0.012680368,0.08285971,-0.038775776,0.03024995,0.049293354,0.099025846,-0.06217493,-0.11957518,-0.008502697,-0.0071451194,-0.0724535,-0.10848046,0.14510849,-0.1466127,0.016449297,0.004037584,0.08556999,0.038000993,-0.05178153,0.10891558,0.08029969,0.03116393,0.072303474,0.1252653,0.06313384,0.045524262,-0.037010767,0.030028204,0.041283626,-0.0721731,0.12802674,0.06617585,-0.0904678,-0.06448515,-0.10873829,0.031774182,0.12238023,-0.08328841,-0.07005259,-0.026870007,-0.12107508,-0.021686425,-0.052831363,0.035378102,-0.073723614,0.03772057,-0.14588764,-0.001057934,-0.117369056,0.01715033,0.10365194,0.072407894,-0.08977474,-0.040653706,0.046845768,-0.082220234,-0.04794346,-0.044498947,-0.042138044,0.083950244,0.031774513,-0.048408322,-0.079525985,0.03873097,0.12894407,-0.020053577,-0.053858943,-0.024814049,-0.11733611,0.093125075,-0.15046927,-0.044238403,0.0017613344,-0.019496627,-0.026123209,-0.009421829,0.059096664,0.0043865675,0.0032983709,0.054492522,-0.08885941,0.023997717,0.051562853,-0.14621031,0.108566895,0.10344376,0.057426345,-0.028350208,0.070771545,0.020231139,0.05782006,0.022188786,-0.06771677,0.0077761994,0.09561666,0.08597921,-0.03447391,-0.061040774,0.024025783,-0.08158207,0.014471627,0.01141769,-0.032485437,0.064283945,0.018928694,-0.12656167,0.041092463,-0.005939635,0.08433214,-0.017737422,0.0435116,-0.027326109,0.025301756,0.05197526,0.0703661,-0.0267889,0.07552308,0.14083998,0.006759685,0.06287631,0.04166677,-0.069423914,-0.0746166,0.029215463,-0.008177125,0.058552656,-0.08429193,-0.011578411,-0.084657386
going,0.07349619,-0.014906528,-0.025012685,0.07803142,0.10480074,-0.031926848,0.02155148,0.15433407,-0.03971241,0.034435257,-0.09215137,-0.055747226,0.019752173,0.069185734,-0.036402248,0.015868943,-0.025506444,-0.012625135,-0.036812123,-0.13480735,0.04519737,-0.0845968,0.013510126,-0.020922631,0.026534371,-0.013997661,0.063261814,-0.049865782,-0.07658178,0.09141564,0.10356143,0.07829623,0.0003399704,0.004919649,-0.056049585,0.077999055,0.069518566,-0.0627986,-0.07899708,-0.031865828,-0.096197754,-0.018834375,-0.043287963,-0.015146306,0.08121973,-0.026474923,0.060826015,-0.0864579,0.06013835,0.027959263,0.072006725,-0.039375883,-0.08020426,0.00048222777,0.10466139,-0.028974155,-0.046784848,-0.04827665,-0.0668572,0.016159963,-0.010941435,0.023103196,-0.003715675,-0.100954816,-0.16216594,-0.0011015194,0.00085504446,0.14075519,-0.120999895,0.16034839,0.0013171252,-0.0074265,0.07800081,-0.014968541,0.04499181,0.019132024,0.09509005,-0.08117819,-0.10389007,0.025812292,-0.010085812,-0.0887942,-0.10318449,0.12752771,-0.1387069,-0.0038651642,-0.03471841,0.084066644,0.08317709,-0.056528702,0.08872408,0.09718374,0.026860088,0.09485191,0.09513387,0.08665353,0.083720215,0.015324038,0.020564381,0.028971177,-0.054695986,0.14742996,0.04246967,-0.08492797,-0.07713122,-0.09138239,0.0530405,0.11587588,-0.071175374,-0.06906504,-0.018491555,-0.092692174,-0.020186814,-0.059401322,0.032223087,-0.10398312,0.033177212,-0.14997287,-0.012319555,-0.08897698,-0.009010584,0.14234568,0.06989101,-0.059951905,-0.044575326,0.06521805,-0.08836357,-0.0408061,-0.03453446,-0.044832394,0.05376607,0.023587016,-0.050492905,-0.06209835,0.0125238,0.13516617,-0.06680687,-0.06765076,-0.022088746,-0.08847042,0.093675084,-0.12308855,-0.028361965,0.013127582,0.020729896,-0.04557448,-0.018407559,0.051648013,-0.013443816,-0.009889989,0.051748518,-0.07991221,0.06422784,0.032579284,-0.19297281,0.069990575,0.093468,0.04781234,-0.036130518,0.078781314,0.00989481,0.07017195,0.061083283,-0.08075711,0.008082974,0.092069164,0.0574854,-0.036177274,-0.061531216,0.031146197,-0.11981282,0.03588261,0.022666702,-0.038190227,0.07927609,0.03577969,-0.14883004,0.054864153,-0.00796595,0.115719505,0.0007380449,0.034210272,-0.04361593,0.007936352,0.057486463,0.08648699,-0.041329436,0.06410689,0.14162195,0.007665757,0.057318572,0.022692459,-0.052706536,-0.05317225,0.026207363,-0.014410136,0.096031085,-0.09125636,0.008205312,-0.12452637
think,0.070250474,-0.028482549,-0.036156997,0.10781281,0.094451286,-0.039154146,0.03497554,0.18203568,-0.048044123,0.016716508,-0.08764689,-0.035461154,0.020569758,0.068623126,-0.04136602,0.0066792024,-0.011366342,-0.016878476,-0.015088483,-0.12728389,0.04697953,-0.09484781,0.018453306,0.0047274423,0.010082623,-0.010536281,0.053873945,-0.061024074,-0.09655136,0.07528957,0.09911691,0.066327915,0.021380706,-0.0008382102,-0.039351482,0.07234615,0.06927357,-0.07896092,-0.079847604,-0.037236895,-0.090387434,-0.0021786299,-0.066069104,-0.005726056,0.0932115,-0.037791558,0.036372278,-0.07871887,0.057420667,0.034118075,0.057308614,-0.04189659,-0.06708591,0.0019139269,0.10018918,-0.023099508,-0.050151736,-0.061424855,-0.072168045,0.014570693,0.0035906583,0.011242853,-0.015134717,-0.068290025,-0.16066277,-0.021510864,0.0068504415,0.14003415,-0.101290226,0.15062596,-0.009150312,-0.009241992,0.0826657,-0.030170115,0.037512373,0.041603796,0.091506734,-0.07528741,-0.10628676,-0.0063919844,-0.01353874,-0.09153471,-0.11551768,0.1468613,-0.13922954,0.0031591228,-0.015301649,0.089048035,0.04670481,-0.05921533,0.109384544,0.08254377,0.028669896,0.08593285,0.11322993,0.057704818,0.06255687,-0.005855163,0.018903013,0.044417635,-0.043999385,0.13978842,0.057837002,-0.093545295,-0.0683925,-0.09556761,0.044158645,0.124395095,-0.091830105,-0.07126214,-0.034082267,-0.113247216,-0.020059826,-0.057734884,0.029364763,-0.0958068,0.025030995,-0.15011892,-0.00069278164,-0.10872219,-0.0046137935,0.123885214,0.060310107,-0.07532388,-0.03372412,0.054286122,-0.08430583,-0.072152734,-0.038060766,-0.036425196,0.06082525,0.032263886,-0.042605765,-0.08496587,0.02308755,0.14085831,-0.040627487,-0.051653378,-0.022004798,-0.10890021,0.10923068,-0.1438854,-0.04103283,0.02044764,-9.75666e-05,-0.045282137,-0.01170814,0.05709966,-0.0075860997,-0.0032242057,0.03740458,-0.10027629,0.05482897,0.043746356,-0.16512376,0.08878692,0.09173173,0.032712586,-0.03950521,0.08057786,0.02104394,0.061157096,0.05520177,-0.07118835,0.014695675,0.1000648,0.07590943,-0.042208463,-0.077139385,0.025631633,-0.10702871,0.026554257,0.020393766,-0.05088456,0.073122054,0.01972067,-0.14452894,0.053056292,-0.0051751514,0.10308232,0.005859815,0.03841711,-0.043700807,0.0046805297,0.04604653,0.07051789,-0.025853062,0.077705495,0.13356873,0.01586166,0.06801548,0.041900665,-0.06659551,-0.05343607,0.028233245,-0.020209981,0.08560517,-0.09284216,-0.004443139,-0.10708125
really,0.06691898,-0.03187992,-0.03148873,0.10537212,0.09934374,-0.042521242,0.035861153,0.16909133,-0.047182467,0.021557668,-0.08017291,-0.030990835,0.03132982,0.08164478,-0.035460833,0.009376042,-0.011783597,-0.011924409,-0.0067380657,-0.1359841,0.050622877,-0.08609989,0.032178793,0.006543264,0.02456796,-0.011461897,0.063852616,-0.06523575,-0.08078903,0.0699934,0.10572862,0.069171846,0.02873335,0.014476842,-0.037094023,0.063921824,0.06418629,-0.09463967,-0.08056914,-0.062721826,-0.09378468,-0.019506905,-0.065854006,-0.00816401,0.087816,-0.016959317,0.020150369,-0.090852045,0.05039962,0.040141907,0.05138873,-0.056185387,-0.059796743,0.014112992,0.09103476,-0.026436184,-0.05659911,-0.07017072,-0.0838654,0.010570641,-0.017721187,0.0015608399,-0.0011331297,-0.07114584,-0.17412943,-0.0049930015,0.0019323083,0.12112658,-0.1262299,0.14668538,-0.0019341394,0.008306077,0.07849768,-0.029819433,0.0284381,0.030748589,0.09703951,-0.06771074,-0.119612284,0.008880312,-0.0059642224,-0.078503124,-0.1103942,0.13960783,-0.14219648,0.0053004907,-0.00814834,0.09153942,0.04823828,-0.05872781,0.09939001,0.085166626,0.029524269,0.06971685,0.11566841,0.06470227,0.0649736,-0.017126622,0.025209246,0.03754978,-0.06985755,0.12966163,0.06250411,-0.09067796,-0.071627915,-0.09541639,0.037855964,0.118653364,-0.088621356,-0.07621771,-0.028217314,-0.109733894,-0.017831607,-0.0583175,0.031817764,-0.08166062,0.034994077,-0.1524055,-0.004401256,-0.11746739,0.0065365164,0.12042576,0.062820345,-0.08511486,-0.042775817,0.06020039,-0.083820306,-0.0491779,-0.045253947,-0.043381616,0.072799295,0.03770472,-0.04841955,-0.07788916,0.027301643,0.1298876,-0.04124452,-0.054538693,-0.030343752,-0.120215386,0.101720445,-0.14240682,-0.04407618,0.0047822273,-0.00035840782,-0.05046011,-0.02303222,0.070304886,-0.0013028283,-0.0034590273,0.04054526,-0.085152745,0.041037433,0.04696591,-0.1673965,0.10659872,0.08784827,0.057523534,-0.029999603,0.07636403,0.03031114,0.058090508,0.036030006,-0.06944636,0.002025481,0.09632962,0.07014494,-0.033465024,-0.06817642,0.020898525,-0.09570659,0.03474098,0.016401121,-0.043787323,0.07443407,0.024299724,-0.12559852,0.043851353,-0.008273468,0.095199674,-0.003465653,0.04006419,-0.033995368,0.030588863,0.058226943,0.080689475,-0.03289036,0.08405728,0.15409547,0.012681497,0.06365305,0.039071057,-0.07659572,-0.06731216,0.03403678,-0.011694665,0.06803467,-0.098335855,0.0046164673,-0.10742027
want,0.052642733,-0.018757813,-0.019946214,0.08920969,0.099280454,-0.037731007,0.033080585,0.15451075,-0.04497661,0.028408334,-0.08390653,-0.03975955,0.031029673,0.07564843,-0.02631981,0.007934167,-0.020051494,-0.0141171655,-0.011084933,-0.1363002,0.04262166,-0.07724848,0.03625816,0.00077757024,0.023340883,-0.010611332,0.06417004,-0.0662439,-0.066055275,0.06156314,0.10315735,0.061192024,0.034420785,0.021934606,-0.0356187,0.06141298,0.065116845,-0.086301036,-0.074872956,-0.065352954,-0.097308315,-0.02322096,-0.063541405,-0.0017065144,0.08694334,-0.01742656,0.022277122,-0.08584889,0.04980495,0.037121218,0.052728835,-0.055417,-0.05394451,0.010969355,0.09390098,-0.030840425,-0.053708624,-0.066731244,-0.07796753,0.008641095,-0.032176375,-0.003496741,0.005256408,-0.07881741,-0.18065594,-0.004344125,0.0002662554,0.122690745,-0.13478006,0.14786825,-0.0069471966,0.006572682,0.074440375,-0.025427926,0.015680445,0.024484495,0.08804551,-0.07245233,-0.11907876,0.017153358,-0.0055017364,-0.07546824,-0.0997504,0.13481988,-0.13252117,0.0086648045,-0.012667098,0.09428099,0.052176107,-0.06158903,0.09091617,0.09011914,0.033806242,0.07177299,0.11784164,0.06971018,0.070907645,-0.009686783,0.034759976,0.025871795,-0.08390095,0.13110699,0.052891828,-0.09255947,-0.076559454,-0.094859496,0.03561677,0.12110044,-0.08836881,-0.07806743,-0.021451788,-0.10899454,-0.022060543,-0.06194801,0.03216481,-0.080249846,0.037042532,-0.16308695,0.0026815059,-0.11813264,0.0047402545,0.118536,0.056582004,-0.07458458,-0.040297672,0.063081026,-0.08657912,-0.04671169,-0.040452916,-0.05563749,0.07622569,0.035982944,-0.049328398,-0.06589669,0.021245027,0.12969118,-0.047780216,-0.05911482,-0.029015297,-0.1275363,0.09602588,-0.13716218,-0.04210138,0.0008614335,0.0020097902,-0.048032798,-0.03118969,0.07322034,-0.003841769,-0.00309607,0.048032258,-0.07579083,0.03779391,0.056135982,-0.17550391,0.10458196,0.08572782,0.05969667,-0.02812028,0.07473027,0.03386179,0.05670305,0.038385116,-0.07408336,-0.0014728792,0.089489534,0.07424727,-0.036115427,-0.06491205,0.021001102,-0.09854752,0.044584673,0.012706135,-0.04430711,0.083736405,0.031761125,-0.13201065,0.051467963,-0.0080556115,0.10424887,0.005242361,0.036274824,-0.029668579,0.04073817,0.061047666,0.08714628,-0.03792478,0.08410037,0.16930786,0.014445142,0.054838087,0.040166475,-0.07429398,-0.07429225,0.043012265,-0.0076522687,0.066312075,-0.09621431,0.016275534,-0.11401672
ethan,0.056220576,-0.026399842,-0.022465091,0.08914113,0.099207975,-0.047501743,0.035182763,0.17467995,-0.049318146,0.019963315,-0.08140834,-0.04786246,0.027419712,0.067064874,-0.03647922,-0.0067005954,-0.0054239407,-0.0030009754,-0.015898457,-0.14682817,0.050248396,-0.07993189,0.033686828,0.0021925436,0.018483715,-0.016601887,0.05921962,-0.06159444,-0.066731706,0.08977304,0.09981521,0.062184155,0.038207874,0.021631818,-0.032058313,0.072701305,0.06277713,-0.08451634,-0.07890967,-0.061126474,-0.0921326,-0.01713294,-0.044998657,0.00483648,0.08835761,-0.02943106,0.021020692,-0.0861023,0.052352358,0.032850783,0.04926872,-0.052227166,-0.06746472,0.0038634588,0.09484582,-0.026102245,-0.05772623,-0.06363131,-0.078009576,0.015105136,-0.04166205,-0.003658153,0.003529446,-0.071882665,-0.17777574,-0.012289502,0.0019495159,0.13188224,-0.1225946,0.14122327,0.0046352316,-0.0016111777,0.06658234,-0.020555679,0.028916046,0.034993816,0.08874108,-0.08455163,-0.11267928,0.030379048,-0.012512818,-0.07490459,-0.097560555,0.16044948,-0.13833268,0.012067509,-0.036017377,0.09992751,0.060200375,-0.055066116,0.11179979,0.0874228,0.020644402,0.08266139,0.1069707,0.07952162,0.076456524,-0.009777581,0.04188851,0.027968012,-0.06847693,0.14508325,0.051638797,-0.08018153,-0.080995165,-0.090480454,0.043775268,0.11203657,-0.08564218,-0.07398683,-0.017096592,-0.10556651,-0.037781406,-0.06637425,0.039213512,-0.084591225,0.031131187,-0.17159143,-0.013790494,-0.10849174,-0.007859652,0.12358589,0.06257026,-0.07676547,-0.05236443,0.057420045,-0.090597056,-0.055876452,-0.03594439,-0.044379562,0.06175451,0.024022788,-0.04873915,-0.06315755,0.021141846,0.121253975,-0.040994942,-0.067667745,-0.033558838,-0.12657227,0.08312522,-0.13777456,-0.028669655,0.008655677,0.0019846987,-0.042234715,-0.013245221,0.05044435,-0.011039798,-0.0092222,0.052383658,-0.07360281,0.0431411,0.04174554,-0.17859666,0.09227775,0.08631654,0.045960475,-0.047272623,0.07519593,0.02973297,0.050576106,0.035325833,-0.069962546,-0.0029055509,0.08272107,0.091135435,-0.03109514,-0.0694079,0.03457332,-0.098457016,0.03911784,0.01084983,-0.029844385,0.0831629,0.04711843,-0.14693488,0.060284223,-0.01456202,0.092365295,-0.005596394,0.033490617,-0.040824212,0.019181293,0.05731063,0.067889124,-0.031013155,0.06816187,0.14921497,0.013994368,0.056946997,0.03241773,-0.072732955,-0.07159403,0.03517225,-0.0075405375,0.06349502,-0.08469774,0.0086323265,-0.11094172
know,0.069876,-0.030479541,-0.026971282,0.10498061,0.09500646,-0.045327276,0.036412593,0.18821956,-0.044005565,0.011663633,-0.0863297,-0.042850196,0.01978924,0.06793452,-0.043494683,-0.00036297285,-0.0072176512,-0.013899582,-0.017205235,-0.13247313,0.04777703,-0.08962035,0.020762518,0.0032763546,0.0113529,-0.0105847,0.051301323,-0.059439313,-0.093020745,0.0858747,0.09666015,0.067275696,0.021695752,0.009233394,-0.041603222,0.07221175,0.065925516,-0.08540888,-0.0753469,-0.042338602,-0.09333344,0.00070628966,-0.05625702,-0.004778822,0.08830434,-0.03356217,0.03477327,-0.08199441,0.05315064,0.036399413,0.05688927,-0.047138233,-0.06915786,-0.0011825757,0.10277744,-0.021938732,-0.0488072,-0.054864753,-0.07030484,0.01662541,-0.011360665,0.009815924,-0.012267107,-0.067936026,-0.16157754,-0.023143215,0.007480901,0.13596907,-0.10394135,0.14369702,-0.006987559,-0.013163664,0.08301103,-0.032841485,0.0353294,0.038463283,0.090270855,-0.08124907,-0.1088182,0.0011541826,-0.014926673,-0.08658595,-0.11435807,0.15941274,-0.13447799,0.009793043,-0.020356517,0.08744578,0.05074753,-0.058873456,0.11344009,0.08573332,0.02409603,0.08637899,0.111217745,0.06688074,0.063989826,-0.009276331,0.027713668,0.041803073,-0.043586038,0.14554283,0.051477406,-0.08904672,-0.06974233,-0.09716971,0.042654835,0.11817145,-0.08949253,-0.06727713,-0.031927463,-0.11011199,-0.02520529,-0.060342886,0.035290923,-0.09093627,0.03370653,-0.155752,-0.0025510455,-0.11182863,-0.00065938727,0.12568247,0.061555386,-0.074367225,-0.02991604,0.05620337,-0.09275188,-0.070715055,-0.038396776,-0.037871867,0.060301345,0.035448022,-0.041792303,-0.08071119,0.02516101,0.13274199,-0.046124592,-0.058262035,-0.024387203,-0.11363815,0.09737403,-0.1439378,-0.03297164,0.023774993,-0.0018175853,-0.040858228,-0.013735188,0.047693677,-0.0020428393,-0.0018306309,0.04195789,-0.09230814,0.046335608,0.040653627,-0.16449484,0.08876914,0.09270511,0.03277743,-0.04204503,0.08723611,0.020980727,0.060285304,0.051343326,-0.06636449,0.013989607,0.09567229,0.08387914,-0.038962103,-0.068048716,0.02985433,-0.10804547,0.023083175,0.013063282,-0.045155298,0.07566162,0.02973591,-0.149445,0.056676902,-0.0045663035,0.0986577,0.0035499397,0.035530142,-0.043459486,0.009898315,0.049798094,0.07691165,-0.020542277,0.077638246,0.13823985,0.0122749545,0.063774765,0.040509325,-0.06155772,-0.05934933,0.022591071,-0.022313647,0.08790279,-0.08858668,-0.003402346,-0.10578095
right,0.06806584,-0.025232071,-0.026184091,0.1011777,0.10073848,-0.048036303,0.039130483,0.18101004,-0.044813376,0.014288463,-0.081553556,-0.04514051,0.022141036,0.07064309,-0.044152975,0.004262798,-0.005197421,-0.013003453,-0.01758675,-0.13814597,0.052543785,-0.08304391,0.023523377,-9.26854e-05,0.013916022,-0.012946094,0.059739724,-0.0630897,-0.08326985,0.08222133,0.10002078,0.06318118,0.025376502,0.009760517,-0.040079188,0.071508795,0.07224593,-0.08187575,-0.07727143,-0.047611237,-0.09102077,-0.008721657,-0.052135613,-0.0026149692,0.09214165,-0.026019126,0.029811576,-0.08437166,0.05504627,0.03922196,0.05451606,-0.047976192,-0.06825935,-0.0012539548,0.09912165,-0.024928765,-0.047780633,-0.059756335,-0.07700268,0.014705831,-0.021113861,0.0061383927,-0.00629319,-0.070947826,-0.16877402,-0.01614234,0.0038567455,0.13368167,-0.11128723,0.14482664,-0.0070830947,-0.013957104,0.08132365,-0.03045232,0.033059746,0.031999465,0.09246912,-0.07810103,-0.109339096,0.009415981,-0.011341678,-0.0836808,-0.11065697,0.1536935,-0.13196687,0.012276673,-0.023096621,0.09456094,0.053981293,-0.062168684,0.111680724,0.08890165,0.024021551,0.08745837,0.11166815,0.070061825,0.065731,-0.008913087,0.02809931,0.039567158,-0.05676542,0.14431317,0.055539012,-0.085825615,-0.07564384,-0.097547695,0.04183788,0.12178553,-0.089211866,-0.064403735,-0.030372346,-0.11388339,-0.024612742,-0.05830468,0.031503566,-0.09206958,0.028595703,-0.15808997,-0.0045846393,-0.10834976,-0.001509985,0.12809901,0.05768625,-0.07693149,-0.040460464,0.05475942,-0.09019247,-0.060868673,-0.039507437,-0.048015885,0.05943082,0.029940069,-0.04477811,-0.06948746,0.022650568,0.13436078,-0.041984543,-0.06755926,-0.029718596,-0.113530844,0.09860932,-0.14255466,-0.036102366,0.017359277,0.0013000626,-0.037073486,-0.01800042,0.049580704,-0.006477674,-0.0061378214,0.04607666,-0.0852124,0.048199322,0.04418149,-0.17027767,0.092538014,0.093991466,0.038603112,-0.036762506,0.083507836,0.023576172,0.0560859,0.042151436,-0.07064663,0.009136181,0.08899358,0.0810207,-0.033404846,-0.066887535,0.03494557,-0.10536893,0.028113313,0.014839897,-0.042897135,0.07851455,0.0368827,-0.14350206,0.05402938,-0.009556702,0.09695018,-0.0028180964,0.033107337,-0.041633327,0.01506086,0.049645714,0.07694039,-0.029685399,0.07122257,0.14439462,0.014928328,0.05891334,0.037265148,-0.067089334,-0.06652157,0.025667427,-0.013741025,0.0787765,-0.082550645,0.0049366695,-0.10607902
us,0.07143961,-0.026245581,-0.024178037,0.09461865,0.094553396,-0.042912282,0.03176599,0.17611015,-0.042550005,0.016455783,-0.088256426,-0.047843438,0.01566627,0.070878625,-0.043339897,0.010956081,-0.017247617,-0.016792959,-0.027895512,-0.13208355,0.04952155,-0.084431216,0.01763712,-0.0044608414,0.010586416,-0.006695226,0.0567728,-0.06233439,-0.087313265,0.08327385,0.100640215,0.06600942,0.014064927,0.0050849137,-0.042779934,0.07939869,0.068874665,-0.07456902,-0.078852795,-0.038558964,-0.09209252,-0.0057647605,-0.050354,-0.005241449,0.08969419,-0.031259257,0.03944717,-0.08292145,0.058783393,0.03453021,0.059735417,-0.045276165,-0.07565068,0.0010487911,0.10398474,-0.02045982,-0.045728017,-0.0534346,-0.071328826,0.015333288,-0.0059872796,0.020062137,-0.013346622,-0.07687631,-0.15944548,-0.01673858,-0.0010119858,0.14172074,-0.10060506,0.14850107,-0.006630893,-0.01674132,0.08067694,-0.027228702,0.03940175,0.028483178,0.09031094,-0.082688116,-0.099668,0.005859688,-0.010508559,-0.092524745,-0.11456574,0.14568304,-0.13224582,0.007035932,-0.03225208,0.08551721,0.059137926,-0.06182414,0.10772582,0.092048444,0.024759533,0.096899055,0.09945911,0.07545846,0.06624635,-0.0021655757,0.021104584,0.038027957,-0.03560784,0.14503239,0.05200605,-0.08748053,-0.066023156,-0.09684436,0.05236916,0.11971849,-0.08583055,-0.06689085,-0.033193514,-0.10821703,-0.018477932,-0.05973535,0.03577414,-0.101236574,0.03110374,-0.15614063,0.00028697215,-0.10775503,-0.002698778,0.1304116,0.057474587,-0.07239299,-0.035590705,0.053069964,-0.0925022,-0.066940196,-0.037525296,-0.04386424,0.053087335,0.032290865,-0.045982398,-0.0742941,0.020763746,0.13916627,-0.057060093,-0.061440885,-0.023449963,-0.106042795,0.10193357,-0.14119263,-0.027026827,0.026995549,0.005478583,-0.04205851,-0.016547397,0.045308586,-0.008414645,-0.00028396765,0.047121312,-0.08647069,0.059245553,0.032759048,-0.17230317,0.08121314,0.09064051,0.0330395,-0.039776053,0.08781733,0.012958695,0.05982157,0.052204818,-0.069517165,0.015368349,0.09688162,0.07469085,-0.039314903,-0.065152615,0.030806296,-0.11465977,0.024683677,0.01849061,-0.04429009,0.078072645,0.035465147,-0.14723101,0.06025349,-0.0044887415,0.110340774,0.0037424369,0.036654193,-0.046175662,0.0025361697,0.054993734,0.08231525,-0.022902517,0.072484754,0.14354366,0.01346948,0.06240276,0.03546353,-0.055310648,-0.0549724,0.024921285,-0.02013316,0.090063535,-0.08531534,0.0037681737,-0.118172
could,0.07616598,-0.0352214,-0.03249879,0.11394314,0.095374025,-0.052650012,0.040703237,0.19521078,-0.051498983,0.0068796976,-0.08437517,-0.043455932,0.021099392,0.07143254,-0.045140643,0.00071955327,-0.004435179,-0.010500257,-0.019230247,-0.13104974,0.055144254,-0.09134716,0.015480218,0.0003844862,0.0102606155,-0.014300873,0.049018014,-0.059960414,-0.09595865,0.088357955,0.106030874,0.06295283,0.019462649,0.007521826,-0.039199416,0.0790167,0.07135245,-0.07905806,-0.073943876,-0.041883335,-0.08962619,0.002650035,-0.045953713,-0.0025133295,0.090347424,-0.034775738,0.03121491,-0.08009808,0.05946424,0.035891842,0.054242764,-0.048963778,-0.07862236,-0.005875532,0.10438468,-0.013905519,-0.045896094,-0.05516294,-0.07014591,0.015196005,-0.005328267,0.019107027,-0.013360123,-0.06290773,-0.16222829,-0.024339505,0.0066622156,0.14493096,-0.094237156,0.14332603,-0.010483316,-0.027183056,0.085708745,-0.031165533,0.045514766,0.039604355,0.084711164,-0.07910463,-0.107134834,-0.0028358805,-0.01657308,-0.091938496,-0.11614611,0.16911037,-0.12546709,0.012923157,-0.030018529,0.087876685,0.048899304,-0.061286774,0.1204198,0.084443815,0.01618672,0.09596514,0.10901063,0.07204113,0.061745144,-0.011888755,0.025682544,0.04307068,-0.028269041,0.14712398,0.055038303,-0.08188927,-0.07093617,-0.094319314,0.050353263,0.120732345,-0.0895276,-0.06292054,-0.03611751,-0.11075444,-0.021868816,-0.05758202,0.03443935,-0.09381068,0.031340472,-0.16105312,-0.0053632236,-0.10980452,-0.005404207,0.13076758,0.0578829,-0.077643365,-0.032628596,0.049438674,-0.09420772,-0.07543575,-0.038452376,-0.033864006,0.050970882,0.02974065,-0.037490334,-0.07926299,0.018954817,0.13768588,-0.044403646,-0.066105515,-0.027081179,-0.10861899,0.098365694,-0.1409059,-0.028369017,0.031792134,-0.0040091295,-0.035478704,-0.009454408,0.03891378,-0.004541332,0.003613111,0.03886184,-0.09413074,0.047812555,0.029561047,-0.16009222,0.08639339,0.0912354,0.024059042,-0.040184982,0.08734224,0.0153752845,0.054156087,0.051282644,-0.06631408,0.013070729,0.09674016,0.08149935,-0.041593663,-0.07310274,0.034311138,-0.108252734,0.022078555,0.016217198,-0.046981007,0.06778829,0.031352796,-0.14722839,0.056979924,-0.009087386,0.09504212,3.708722e-05,0.03286382,-0.04811067,-0.0018798047,0.04956731,0.06856191,-0.019257596,0.06887317,0.126129,0.011916295,0.060282618,0.038281415,-0.05996419,-0.049558945,0.016796958,-0.02900381,0.08072696,-0.076544285,-0.0035062935,-0.102347545
would,0.07334522,-0.028462185,-0.0319158,0.10957128,0.09776253,-0.043105997,0.034893785,0.18299209,-0.04573286,0.011051195,-0.08340517,-0.040030032,0.023282923,0.06707994,-0.04370853,0.0020504093,-0.011453494,-0.014946783,-0.023470448,-0.12997727,0.05023827,-0.08648454,0.014136965,0.0037827825,0.0126468185,-0.013734056,0.053496893,-0.060290005,-0.09662061,0.08384788,0.099349014,0.062478535,0.020583652,0.004375782,-0.04361542,0.07917873,0.070629396,-0.076090746,-0.07801125,-0.036878385,-0.08873556,0.0003432796,-0.05673113,-0.0047930325,0.09091927,-0.039026193,0.035315216,-0.07941413,0.058098804,0.035549104,0.059559178,-0.045986168,-0.07710761,-0.0017931991,0.101043195,-0.017814092,-0.04580552,-0.057169743,-0.075150974,0.015390232,-0.0048331222,0.017068692,-0.012157818,-0.07473325,-0.16471308,-0.019584242,0.0023949181,0.1402032,-0.09755616,0.14683552,-0.0073209987,-0.017188722,0.08053544,-0.02863216,0.04135109,0.042267222,0.08864998,-0.08021426,-0.110245004,0.0025992722,-0.016993385,-0.09002861,-0.11439516,0.1563569,-0.13711756,0.012464999,-0.024847472,0.087092355,0.053808413,-0.05497071,0.11144056,0.08664774,0.020819318,0.09519541,0.111269265,0.06920652,0.064407416,-0.006345819,0.018520894,0.041907907,-0.038194206,0.14684528,0.058462206,-0.08248548,-0.07100836,-0.09320136,0.045719016,0.12239209,-0.08848906,-0.06188478,-0.03123441,-0.109812275,-0.020970538,-0.05767031,0.030928327,-0.097412646,0.030235356,-0.15791008,-0.004451623,-0.104399316,-0.006396061,0.12827367,0.061269954,-0.07641733,-0.030647272,0.053954568,-0.09099144,-0.06478904,-0.035723023,-0.037308354,0.0559668,0.030464005,-0.038838062,-0.08161522,0.022696491,0.13458511,-0.044418145,-0.06257804,-0.02471144,-0.10666139,0.09953028,-0.14155708,-0.032247882,0.023469573,-0.003668487,-0.043205585,-0.009460066,0.049785864,-0.011084879,-0.0034130786,0.043913707,-0.09371176,0.051390246,0.036292266,-0.16876419,0.08240794,0.09192385,0.03078706,-0.041479435,0.08477959,0.015512599,0.06367172,0.05072225,-0.06656494,0.010866079,0.09567915,0.08195732,-0.04075923,-0.07477327,0.03446985,-0.10770769,0.026568487,0.017847799,-0.050039925,0.072716676,0.023263488,-0.14760573,0.05503699,-0.005268709,0.10401461,-0.00162063,0.03589375,-0.04438078,0.0012380596,0.047461215,0.073850736,-0.022969995,0.071131274,0.13304651,0.017511845,0.06699776,0.03601246,-0.06338736,-0.05407468,0.019496681,-0.024210697,0.08686212,-0.083151676,-0.0044941097,-0.108766526
one,0.06731661,-0.027638314,-0.029342897,0.10656014,0.09817347,-0.045384217,0.03614951,0.17496245,-0.048466656,0.014490785,-0.0843203,-0.040765397,0.027440064,0.078644685,-0.037000395,0.01021089,-0.015823307,-0.01122665,-0.012834858,-0.13307239,0.05198453,-0.08424979,0.020256864,0.0046166508,0.021491444,-0.010382097,0.055223648,-0.059450965,-0.08221803,0.07815563,0.10080021,0.06749203,0.020833526,0.007773706,-0.03814167,0.07403861,0.07082741,-0.08518649,-0.08084302,-0.049169116,-0.09191728,-0.013846141,-0.060698844,-0.006395426,0.08654202,-0.02741881,0.031044872,-0.08590574,0.052706204,0.03612664,0.058361053,-0.048458703,-0.06923451,0.008299998,0.10010866,-0.020363603,-0.05265032,-0.06360753,-0.07761295,0.013374219,-0.018218594,0.0075882184,-0.0046091173,-0.07218447,-0.16824177,-0.012304819,0.0019095377,0.13323766,-0.11672625,0.15031557,-0.005588515,-0.004327514,0.08065458,-0.029490095,0.032223687,0.037471388,0.08969907,-0.07617399,-0.111975364,0.010955295,-0.011023143,-0.08025791,-0.10745542,0.14446042,-0.14067313,0.010079233,-0.01641582,0.09233082,0.057344045,-0.057978142,0.10468007,0.08629451,0.02186154,0.08423386,0.11120443,0.06845105,0.064349905,-0.011440264,0.028098892,0.039887257,-0.06002516,0.13458732,0.059782803,-0.09061248,-0.076874845,-0.0965711,0.038373817,0.1204759,-0.08463797,-0.07050394,-0.031053826,-0.11019883,-0.022963524,-0.05678307,0.036635574,-0.086635046,0.03473812,-0.15844786,-0.0022873299,-0.109819055,0.0041244337,0.1261495,0.06409083,-0.08236978,-0.04239264,0.059075736,-0.08744557,-0.056713514,-0.03795184,-0.043801975,0.06779356,0.031753566,-0.049904507,-0.07686501,0.023735216,0.13068815,-0.040824503,-0.058720097,-0.029052794,-0.111747384,0.10012092,-0.13831782,-0.0350362,0.008645703,0.0012830836,-0.04598639,-0.018700264,0.059645627,-0.006197571,-0.00308171,0.04854475,-0.08510527,0.04624326,0.04496154,-0.17247935,0.0971854,0.09350339,0.0470389,-0.03509217,0.07834024,0.02039356,0.059150588,0.042595927,-0.068283156,0.006913641,0.09505375,0.07785039,-0.040402167,-0.06810199,0.03235204,-0.10326825,0.030988209,0.011426348,-0.04565697,0.077333145,0.028257696,-0.13754553,0.051183984,-0.008721634,0.10247821,-0.0036877543,0.03555866,-0.03824553,0.017068682,0.05516258,0.07903952,-0.03392174,0.079160206,0.14153448,0.014662019,0.06413449,0.034506485,-0.06746647,-0.066162296,0.026468601,-0.011414531,0.08106213,-0.09069957,0.0015945473,-0.10540126
might,0.071259364,-0.02836727,-0.026969789,0.10497573,0.08494611,-0.05136008,0.04050075,0.1878209,-0.048512436,0.0035873235,-0.08376436,-0.04034398,0.019313678,0.06675315,-0.046397217,0.006335002,-0.007591673,-0.013361817,-0.027881002,-0.12854628,0.04458915,-0.091086514,0.0113078095,0.000842088,0.005105558,-0.01188995,0.05049399,-0.063992344,-0.09646852,0.083352,0.10109029,0.06908846,0.015336826,0.007419074,-0.03819713,0.077672176,0.07208478,-0.081178226,-0.071517535,-0.03346815,-0.09248762,0.003942705,-0.047458116,-0.007122413,0.092154816,-0.03778033,0.0402867,-0.07778761,0.05800225,0.03349552,0.059961297,-0.039334647,-0.075038925,-0.0023129024,0.10590209,-0.015268918,-0.04034299,-0.046912357,-0.066490166,0.017052494,0.0016907507,0.018618716,-0.020027312,-0.06803647,-0.15593538,-0.028143894,0.0017673719,0.13810681,-0.09191375,0.14621477,-0.013527608,-0.025817387,0.08607513,-0.031179307,0.043194123,0.04256537,0.086158946,-0.07803091,-0.100928165,-0.0027195718,-0.0104365535,-0.09064986,-0.11812368,0.16183832,-0.12672324,0.01242856,-0.02854062,0.08710349,0.055510186,-0.056883708,0.11559874,0.08476307,0.018585848,0.09617941,0.1076079,0.064205,0.06422949,-0.011452228,0.026126254,0.036954697,-0.021111235,0.14708543,0.053601604,-0.086897194,-0.06553404,-0.09786588,0.045866575,0.12334791,-0.087570585,-0.060639303,-0.038831305,-0.10876067,-0.020736191,-0.057249613,0.029710352,-0.09436548,0.032869093,-0.15246426,-0.0031689638,-0.11119721,-0.006015325,0.1274606,0.055130363,-0.07764561,-0.030320741,0.04949583,-0.094711386,-0.07309349,-0.03844812,-0.035940476,0.052893955,0.031820904,-0.04448876,-0.08261419,0.02080936,0.14077324,-0.04389662,-0.06288257,-0.024755472,-0.10904305,0.098573774,-0.14529017,-0.027098687,0.029678969,-0.0030621174,-0.03818655,-0.010496284,0.039630644,-0.00639904,0.00096037914,0.041244585,-0.09782695,0.051224034,0.032937627,-0.1673329,0.080554575,0.08739334,0.023605023,-0.04625932,0.08814239,0.015181934,0.05741098,0.056017485,-0.0645693,0.019194331,0.101877615,0.08597909,-0.046378065,-0.074215636,0.031444132,-0.11648222,0.017437965,0.012860648,-0.050844647,0.07205076,0.028337155,-0.15859592,0.06057604,-0.004773276,0.10431296,0.007194839,0.038731795,-0.05294059,-0.0018928131,0.047244936,0.07751023,-0.017228793,0.07721241,0.13280062,0.016057026,0.059388045,0.039004486,-0.05487797,-0.054277696,0.019285573,-0.031081311,0.089831196,-0.08090621,-0.005107712,-0.109298356
said,0.06475491,-0.027837472,-0.03439025,0.1064813,0.09678856,-0.043051906,0.036104966,0.18111606,-0.050606743,0.020924976,-0.08789895,-0.04181822,0.0235219,0.060502157,-0.04181782,-0.0021579764,-0.0043136138,-0.017866448,-0.020719402,-0.13544166,0.050570954,-0.089424826,0.023068832,-0.0039262073,0.008459661,-0.015708346,0.050174635,-0.05980042,-0.086858064,0.08855764,0.09753194,0.06865669,0.026221633,0.01148146,-0.04241305,0.08156739,0.06418163,-0.07809932,-0.08036214,-0.038661856,-0.08544336,-0.00060679414,-0.05218467,-0.007670718,0.093154415,-0.038552284,0.03624613,-0.08174447,0.05951429,0.03030268,0.057721127,-0.043319196,-0.0735272,0.0012613952,0.09938351,-0.019314148,-0.048966598,-0.057765268,-0.07427748,0.016789747,-0.010732087,0.008660315,-0.014115,-0.071879625,-0.16350318,-0.020606568,0.004548495,0.13948451,-0.105441675,0.14611545,-0.0064819655,-0.015766313,0.07791273,-0.02761611,0.03573183,0.03171734,0.09057279,-0.08379871,-0.107037604,0.010927358,-0.015721463,-0.08806116,-0.11164519,0.1599321,-0.13441409,0.004057503,-0.033480916,0.09365234,0.056330208,-0.05595462,0.11718977,0.08345416,0.020822711,0.08734826,0.107373096,0.06520526,0.06728756,0.0010512487,0.025901152,0.04386556,-0.041372772,0.1463875,0.05149822,-0.084229656,-0.066752486,-0.09071035,0.05001454,0.11431515,-0.08669651,-0.06656459,-0.02635556,-0.11309253,-0.028493397,-0.05977296,0.031480994,-0.09547586,0.028734045,-0.16191323,-0.007319182,-0.104016215,-0.011076684,0.13395509,0.05830038,-0.072928555,-0.03807468,0.055077214,-0.09396731,-0.07032989,-0.03862898,-0.039834023,0.05821023,0.029141929,-0.04289515,-0.077935524,0.018369664,0.13001902,-0.04364349,-0.056692686,-0.024794256,-0.11313105,0.0983693,-0.1408131,-0.03588099,0.021625513,-0.00029809354,-0.04385243,-0.012530156,0.04784473,-0.0095353965,-0.00523987,0.03965295,-0.096351966,0.057911914,0.03558255,-0.1686835,0.08660665,0.090648696,0.034162268,-0.04439948,0.08764633,0.016115839,0.05581611,0.052896123,-0.0686376,0.0075018844,0.09255495,0.07732555,-0.041621134,-0.07203984,0.034346975,-0.109254904,0.02994383,0.019533154,-0.049752362,0.0754498,0.023643777,-0.15093951,0.05586687,-0.008006665,0.095698014,0.0010660527,0.03456044,-0.047816,0.005005077,0.050844066,0.06556681,-0.026291398,0.07109547,0.13568617,0.016186845,0.060254566,0.036982264,-0.06335909,-0.059387706,0.027332652,-0.018260047,0.08636919,-0.08370428,-0.0017807268,-0.11091615
well,0.0797671,-0.03062702,-0.03506203,0.11367377,0.09218893,-0.043590464,0.035231918,0.18160538,-0.04667068,0.012174316,-0.08442125,-0.03678898,0.025376933,0.07055514,-0.045854606,0.0110774785,-0.008444104,-0.020817306,-0.019652233,-0.12591693,0.053186968,-0.0886266,0.016352437,0.001966926,0.015579146,-0.010973717,0.051480785,-0.058838405,-0.097198285,0.08542805,0.10447574,0.06711251,0.019627517,-0.0013868532,-0.045500327,0.07949837,0.07252452,-0.07965415,-0.08120248,-0.03469405,-0.09319621,0.0061241286,-0.054840267,-0.0120415315,0.08918154,-0.033462875,0.03772294,-0.0803169,0.0550205,0.038483635,0.055593997,-0.040036287,-0.0813193,-0.00016939327,0.10461492,-0.020374302,-0.044801604,-0.055974867,-0.07250965,0.019490292,0.0035805164,0.01557775,-0.01979071,-0.070348546,-0.16131988,-0.024124831,9.522118e-05,0.1368066,-0.09411853,0.15054607,-0.0102166785,-0.021658946,0.089969076,-0.028010504,0.041169353,0.036266632,0.08723674,-0.079155624,-0.11080535,-0.0019591295,-0.012176774,-0.09325423,-0.11686453,0.15503158,-0.13598621,0.00870096,-0.022106461,0.08384468,0.053559884,-0.05847612,0.11225627,0.08750307,0.015299379,0.08976951,0.10513727,0.06761685,0.05738243,-0.011262041,0.019445796,0.046866264,-0.034385085,0.13826282,0.055642378,-0.08834644,-0.06108027,-0.096109614,0.044102196,0.12507312,-0.09046301,-0.06068675,-0.03854052,-0.11169444,-0.018220747,-0.052663617,0.03468808,-0.096902676,0.02944224,-0.15441416,-0.003910378,-0.10823378,-0.0030960722,0.12941048,0.05988999,-0.078730345,-0.02487367,0.052172065,-0.08700353,-0.062418357,-0.038645394,-0.03779191,0.051817074,0.037081,-0.043611005,-0.08144118,0.025399659,0.13935348,-0.04265907,-0.060001083,-0.023730285,-0.09841763,0.098945186,-0.14344148,-0.032033075,0.02775082,-0.00090157473,-0.041573685,-0.0117903445,0.055981554,-0.0065619987,-0.0013692303,0.040732853,-0.09672417,0.054429308,0.036206383,-0.16558374,0.082848065,0.09446651,0.032846734,-0.032940812,0.08720514,0.013414289,0.06130125,0.056796893,-0.06625911,0.011709796,0.09776827,0.07387766,-0.042653747,-0.07679815,0.035108503,-0.11052651,0.02377829,0.0158221,-0.05509936,0.06763244,0.018188713,-0.14507358,0.051880553,-0.0058821943,0.1033388,-0.0010810681,0.03841564,-0.049155515,-0.0007692473,0.0500177,0.07729693,-0.026267027,0.074077286,0.1324634,0.017299397,0.06392626,0.042846292,-0.05917562,-0.04601084,0.020270849,-0.0249723,0.093537286,-0.088252135,-0.008519611,-0.10668337
back,0.071274124,-0.025834702,-0.027669461,0.10276635,0.096587695,-0.044030316,0.036796037,0.17645164,-0.043937992,0.018921772,-0.08642449,-0.043702714,0.023801498,0.067926176,-0.04043994,0.003896311,-0.013075315,-0.017853046,-0.019416474,-0.13416894,0.05188603,-0.09005475,0.017469054,-0.0014107814,0.013733464,-0.012162716,0.05667558,-0.059377324,-0.08909015,0.079709575,0.10311126,0.06606245,0.020689419,0.004207573,-0.04045299,0.07195604,0.07082922,-0.077187195,-0.0797966,-0.039308414,-0.09364811,-0.009985811,-0.053526133,-0.005050015,0.08670701,-0.03341258,0.041020393,-0.081365034,0.05695611,0.03515223,0.056260075,-0.044744357,-0.072388865,0.0073018894,0.09899479,-0.020862563,-0.046422128,-0.058466848,-0.076331474,0.018517798,-0.007549378,0.011246722,-0.008265672,-0.07555081,-0.16650423,-0.017131438,0.0016194939,0.13801488,-0.10813481,0.14589074,-0.0056641907,-0.012243187,0.083633795,-0.027749568,0.0392912,0.035488818,0.08924598,-0.07773485,-0.10801248,0.0058197584,-0.01170242,-0.08648533,-0.11183555,0.14989538,-0.13747282,0.0058608884,-0.02454462,0.09145231,0.060511407,-0.06031556,0.10518592,0.08805399,0.025975993,0.08954369,0.109677754,0.07232043,0.06524729,-0.006385765,0.022272957,0.03542291,-0.048592787,0.13805765,0.056986667,-0.086087115,-0.07175929,-0.09673805,0.04283711,0.11685638,-0.08270235,-0.067740515,-0.028315766,-0.10944998,-0.018531168,-0.05629789,0.033232223,-0.09533015,0.029660754,-0.15594396,-0.0020763662,-0.10340345,-0.0027359244,0.12951653,0.061491854,-0.076556735,-0.03323304,0.05630901,-0.08884551,-0.05869598,-0.038481206,-0.039935037,0.05872632,0.03392518,-0.0433229,-0.07492069,0.020655004,0.13726808,-0.047160815,-0.06333504,-0.02471948,-0.11001263,0.09845857,-0.14093517,-0.031523276,0.017998135,0.005553843,-0.041124333,-0.015714003,0.055171758,-0.008563525,-0.007990289,0.047158234,-0.085949846,0.05434029,0.03729223,-0.17547338,0.08896617,0.087522,0.040229198,-0.036873497,0.085051894,0.021285748,0.061650194,0.04971586,-0.07052276,0.012690678,0.092703514,0.07542723,-0.040540148,-0.069695674,0.03407215,-0.11095137,0.030025937,0.014592375,-0.045340087,0.07914008,0.030269062,-0.14773479,0.052190173,-0.0047315005,0.107077986,0.003216111,0.035644695,-0.04320523,0.0066310936,0.050958507,0.07931963,-0.030661328,0.070238255,0.1440332,0.015459025,0.06385549,0.035787042,-0.06652907,-0.060864773,0.025547365,-0.023436679,0.081847645,-0.089050345,0.0015888185,-0.1134328
specific,0.060426425,-0.02964246,-0.02583495,0.093875155,0.103456415,-0.044670064,0.035374645,0.17054226,-0.04286315,0.018294739,-0.07835565,-0.037099548,0.024204593,0.079073355,-0.037164006,0.0051769265,-0.015268916,-0.0071870126,-0.010531349,-0.1451677,0.049492247,-0.07971708,0.03294391,0.0033904668,0.02492429,-0.015175329,0.0640329,-0.06002821,-0.07271481,0.081433564,0.10621007,0.058824394,0.032683425,0.016618958,-0.032283932,0.0635482,0.06359539,-0.08929314,-0.07307394,-0.06487318,-0.09449851,-0.027512802,-0.055956043,-0.0017856004,0.090278424,-0.021099566,0.026238216,-0.08818805,0.053940438,0.040979095,0.050133012,-0.055840455,-0.061058946,0.011271153,0.09833051,-0.028107446,-0.054580946,-0.06399943,-0.08486436,0.011329499,-0.034978908,-0.0001304704,0.0067580445,-0.07487459,-0.17926785,-0.007815907,0.005876719,0.13086672,-0.13136834,0.14867526,0.0020827914,-0.0011012007,0.07657242,-0.02556102,0.026726596,0.031129736,0.088021785,-0.07277877,-0.11720502,0.017641759,-0.0064678667,-0.07582941,-0.10413754,0.15189677,-0.1326666,0.014720867,-0.019802433,0.097046934,0.055403948,-0.05660413,0.096616395,0.086973764,0.026821012,0.076099016,0.11170471,0.076902695,0.07291971,-0.014826794,0.040865142,0.02617182,-0.07586074,0.13391262,0.052404176,-0.08770992,-0.083092384,-0.09646238,0.03994356,0.119290635,-0.08542067,-0.07354998,-0.023824055,-0.10364557,-0.032053854,-0.058667812,0.034704868,-0.08100944,0.035155106,-0.1654027,-0.005958527,-0.10768613,-0.00037313421,0.1200805,0.06641838,-0.074684516,-0.040543646,0.057992253,-0.08316419,-0.051047385,-0.04163957,-0.04315812,0.070511095,0.025210105,-0.04973865,-0.07072203,0.023158733,0.1268373,-0.04544634,-0.0629522,-0.025836702,-0.12674111,0.08315337,-0.14131492,-0.037171464,0.0032250485,0.0027784777,-0.041066542,-0.023261579,0.06449072,-0.008834248,-0.007010837,0.052668743,-0.07121103,0.034391567,0.04271747,-0.1738381,0.101220414,0.08653169,0.049384464,-0.036130615,0.07346401,0.028321346,0.051593583,0.033029135,-0.06979466,-0.00014341081,0.085493565,0.08098832,-0.033859655,-0.06552776,0.026812885,-0.093247704,0.038365293,0.0073282705,-0.034806143,0.082027055,0.03925709,-0.14024502,0.049251728,-0.009031511,0.09860628,-0.0010190172,0.031196129,-0.025630513,0.024555482,0.06343026,0.08084111,-0.033511423,0.0758747,0.15743744,0.01212511,0.056492977,0.030992357,-0.068919614,-0.07657836,0.031020852,-0.00641891,0.06354698,-0.09444279,0.0122257825,-0.111809544
um,0.07148919,-0.03147065,-0.03237195,0.10623635,0.096487954,-0.04602304,0.033653688,0.18264538,-0.04561693,0.013118248,-0.082478985,-0.041497212,0.025861358,0.075966574,-0.04374372,0.00601739,-0.012705088,-0.013285362,-0.019381586,-0.13029674,0.05538242,-0.085775465,0.017541617,0.0022035078,0.01702063,-0.014466451,0.05897429,-0.06399741,-0.09136158,0.08284849,0.09912671,0.066744335,0.020651203,0.003443459,-0.043378383,0.077178754,0.06911263,-0.08449981,-0.078214124,-0.045371518,-0.0909467,-0.005245133,-0.054522224,-0.011077911,0.09040759,-0.027618743,0.03627829,-0.08343859,0.056021523,0.03789687,0.05347129,-0.04665659,-0.07232114,0.002259071,0.10594855,-0.021524083,-0.047054466,-0.057840545,-0.0725417,0.012139053,-0.006827684,0.012647308,-0.010013548,-0.07452581,-0.1676568,-0.015511488,0.002017767,0.13831908,-0.10916978,0.15113191,-0.0015422255,-0.01186848,0.0854441,-0.02823435,0.041332595,0.039857693,0.09189416,-0.07907302,-0.113595955,0.007375734,-0.0116307875,-0.08535273,-0.113484964,0.15300426,-0.1357689,0.009563702,-0.020787887,0.09128576,0.056083318,-0.055687573,0.10802029,0.08534584,0.023582961,0.086210035,0.10820021,0.07471036,0.060542665,-0.01086884,0.022345537,0.042837214,-0.045659743,0.13811114,0.05785294,-0.08831391,-0.07343507,-0.097717404,0.043180034,0.12121709,-0.08707831,-0.066409834,-0.029396832,-0.10797926,-0.022314748,-0.055502992,0.033044152,-0.093647994,0.02725442,-0.15333381,-0.0027198514,-0.104142584,0.0023906066,0.1293165,0.065112054,-0.080831155,-0.03497683,0.052365746,-0.08649452,-0.05811663,-0.040908705,-0.03999892,0.061396666,0.033421885,-0.043900248,-0.07771853,0.027127774,0.13422051,-0.04549538,-0.061384734,-0.026536534,-0.10926685,0.09600231,-0.1411572,-0.037711143,0.01697684,0.0013895937,-0.039592117,-0.011502964,0.054244198,-0.003034737,-0.0029152383,0.046987433,-0.08747764,0.046277225,0.036329396,-0.16485605,0.0899076,0.0943022,0.038743664,-0.03809485,0.080352426,0.015172035,0.064726606,0.048358593,-0.073705494,0.0068264967,0.097254194,0.074975476,-0.04169736,-0.07173957,0.030819796,-0.10757662,0.025166316,0.017885061,-0.045677263,0.07125762,0.026149653,-0.14087787,0.047579717,-0.009305849,0.10401444,-0.004464476,0.036881477,-0.044456866,0.009952392,0.051146362,0.07491882,-0.029312406,0.07300496,0.14009097,0.015031318,0.06396293,0.03833304,-0.06043726,-0.05693672,0.02276391,-0.018476628,0.08411804,-0.08513931,-0.0031548068,-0.11064122
lisa,0.08825315,-0.009918694,-0.034036454,0.08840844,0.07840145,-0.03306754,0.01953102,0.16343018,-0.033991802,0.021015877,-0.08771291,-0.053681694,0.006104613,0.033734664,-0.043496266,0.016242418,-0.020779049,-0.027694589,-0.047874037,-0.11218938,0.041143715,-0.092678525,-0.013063611,-0.027700044,0.0040473025,-0.0049874876,0.03301008,-0.046863317,-0.10007108,0.09535883,0.0813433,0.08500147,-0.009550608,-0.014737512,-0.06393853,0.100440815,0.07579735,-0.04079206,-0.082577854,0.016842695,-0.08214511,0.024503076,-0.025391737,-0.031705767,0.08632347,-0.058036804,0.07929169,-0.06263583,0.067991994,0.01781643,0.080486834,-0.0181708,-0.10500352,-0.014481554,0.116541736,-0.017563403,-0.02850943,-0.025614362,-0.03949351,0.026639987,0.027883036,0.045487624,-0.04110932,-0.09230166,-0.12235523,-0.029498989,-0.006295774,0.15800926,-0.06961809,0.14862517,-0.015611159,-0.03928369,0.08602644,-0.011829839,0.06871819,0.021491768,0.07934905,-0.09695138,-0.0834103,0.007617563,-0.025517397,-0.110182576,-0.10696859,0.14002226,-0.12173831,-0.008831776,-0.050650656,0.0687335,0.07834345,-0.047582574,0.10319801,0.09190987,0.009350437,0.11620163,0.08525335,0.07768876,0.07431846,0.038192652,-0.007490259,0.04997625,0.015660554,0.15067719,0.038153835,-0.07543458,-0.058072776,-0.08455273,0.07040371,0.11786694,-0.07814928,-0.049370088,-0.035683654,-0.09551784,-0.01940322,-0.05176082,0.026770696,-0.116962045,0.016771387,-0.13498132,-0.006007729,-0.079810195,-0.031058798,0.15708378,0.06143575,-0.060357787,-0.016281134,0.05455158,-0.09882404,-0.06483945,-0.03293366,-0.021664714,0.023413997,0.029426714,-0.02731969,-0.078398004,-0.0030677815,0.1452918,-0.074397236,-0.06136586,-0.019147173,-0.056627527,0.10299134,-0.12453068,-0.024608245,0.05596102,0.020247681,-0.046852663,0.0032589214,0.024875488,-0.015234239,-0.005215536,0.029580541,-0.10965011,0.09885618,0.014324207,-0.18221474,0.03882543,0.08499679,0.009463053,-0.047175642,0.09622121,-0.009906367,0.07131551,0.09222495,-0.07120361,0.018210195,0.105269074,0.051056564,-0.058383923,-0.074040584,0.044171963,-0.1488651,0.021721758,0.037615303,-0.0678808,0.07098051,0.020116046,-0.16840948,0.0589141,-0.00079310767,0.117124945,0.013595175,0.035074897,-0.07708894,-0.0405393,0.042102363,0.07283169,-0.023698222,0.046923265,0.1001419,0.018767206,0.061323926,0.028756754,-0.030338557,-0.015290523,0.0068905056,-0.043789,0.12997408,-0.07361143,-0.010337251,-0.12179745
talking,0.058231395,-0.032471623,-0.026088137,0.10536982,0.10669085,-0.04351454,0.04061041,0.17722762,-0.048586454,0.016472029,-0.08043458,-0.044667035,0.020827593,0.07997288,-0.04836148,-0.004140239,-0.013724636,0.0004919479,-0.016055671,-0.14153568,0.05974814,-0.08272255,0.029709172,0.007975854,0.025756773,-0.019594716,0.06484581,-0.06438328,-0.078475036,0.09299175,0.10652193,0.06450252,0.030692842,0.013562018,-0.03306441,0.072496675,0.06622652,-0.08367266,-0.07248195,-0.06356785,-0.09244221,-0.018192684,-0.04787739,-0.0036995779,0.08760069,-0.023445774,0.02736834,-0.08924974,0.058435008,0.0370738,0.05073607,-0.0482435,-0.06501995,0.0014072391,0.09787373,-0.023849398,-0.05640603,-0.0633488,-0.08304212,0.012292483,-0.031128328,0.0009921364,0.0051115197,-0.07564684,-0.17686133,-0.017652173,0.0059720897,0.1379188,-0.12210211,0.1500271,0.0053253016,-0.0064831167,0.07504305,-0.021541506,0.031770807,0.037566543,0.093003534,-0.07558235,-0.111817576,0.020733573,-0.012783488,-0.08191943,-0.10169535,0.15444686,-0.13902342,0.0130752595,-0.02312201,0.093756184,0.058404848,-0.055053536,0.106466874,0.084343284,0.018559165,0.08424735,0.105459385,0.0821998,0.06532631,-0.01805687,0.034474052,0.036896132,-0.07030166,0.14441225,0.05161837,-0.08931913,-0.08344059,-0.09668805,0.03952398,0.11349666,-0.086850666,-0.06750486,-0.020535521,-0.11301133,-0.034345385,-0.0615223,0.03833321,-0.08967861,0.038427703,-0.16912916,-0.0074578505,-0.10362922,0.002613832,0.1289287,0.07152326,-0.07714396,-0.046251863,0.058658987,-0.09332072,-0.05587213,-0.03834346,-0.04595521,0.062089935,0.024784237,-0.045956187,-0.06587285,0.026610443,0.12848924,-0.039520923,-0.065649696,-0.02976262,-0.119221434,0.08160288,-0.13852741,-0.030468617,0.008847733,-0.002598173,-0.03539263,-0.012344528,0.050079104,-0.0060841525,-0.0074702892,0.05267154,-0.07083008,0.03985161,0.044668954,-0.16397673,0.09051666,0.09610179,0.04030254,-0.043458607,0.07320308,0.025368506,0.055536073,0.033476282,-0.06756292,0.003767163,0.08350548,0.08338647,-0.033080477,-0.06519745,0.03365163,-0.09158803,0.028398495,0.012149539,-0.030493828,0.071220234,0.04214995,-0.1421479,0.05191149,-0.012118653,0.09258162,-0.010896915,0.030270634,-0.03382864,0.016289217,0.05784897,0.07229472,-0.03087819,0.07311305,0.13992181,0.010086972,0.059054427,0.03174224,-0.06739031,-0.071162514,0.028049247,-0.004930353,0.06359291,-0.080091685,0.0038239874,-0.10526363
great,0.067370474,-0.025899075,-0.030214775,0.09405899,0.097072154,-0.04118549,0.027801836,0.16537994,-0.04067762,0.024257282,-0.089581236,-0.0366942,0.02416987,0.07059776,-0.03238408,0.0063240933,-0.016715558,-0.021332124,-0.013419944,-0.12704045,0.047298852,-0.08890808,0.023749087,-0.0023686106,0.01962935,-0.00917015,0.064607464,-0.056473996,-0.08596899,0.07464456,0.1023796,0.06649221,0.02158117,0.007415193,-0.04248829,0.06874817,0.06728353,-0.08133708,-0.08222044,-0.041431233,-0.094840474,-0.006664178,-0.06657046,-0.010946525,0.08768294,-0.030744474,0.03445075,-0.08290413,0.05543103,0.036312833,0.058246788,-0.04808496,-0.066093385,0.008272888,0.10087861,-0.021447552,-0.051096987,-0.06130509,-0.07623011,0.015883954,-0.011018892,0.008892864,-0.013194838,-0.077459894,-0.1663147,-0.010183629,0.0006784958,0.13099486,-0.11283614,0.15157497,-0.0067449813,-0.000999815,0.08289325,-0.030821769,0.029500013,0.028260225,0.09287366,-0.077367835,-0.110047385,0.0057022288,-0.0124782715,-0.08387436,-0.11426549,0.14309601,-0.13413537,0.0026008694,-0.018795917,0.094404064,0.056070738,-0.06356102,0.10457705,0.08749181,0.03376271,0.07847727,0.11020812,0.066524506,0.06611312,-0.004287412,0.018445667,0.036070704,-0.05934282,0.14245571,0.056302898,-0.09457276,-0.06600356,-0.09438422,0.04172739,0.12116973,-0.08621523,-0.07330162,-0.028413171,-0.11051501,-0.014634186,-0.056406967,0.030896861,-0.09547437,0.031111624,-0.15266772,-0.0043567996,-0.110806376,-0.0011858727,0.12769663,0.05489709,-0.07890156,-0.033390544,0.060382657,-0.082050465,-0.060750708,-0.04073741,-0.048500843,0.06453935,0.038743947,-0.047363862,-0.07764589,0.023179417,0.13726717,-0.048203778,-0.05626042,-0.025469914,-0.11651062,0.102791496,-0.13687627,-0.038724948,0.010177348,0.0009898526,-0.05238885,-0.017425034,0.06247948,-0.008290768,-0.0042703766,0.04048521,-0.08989356,0.05072721,0.046701036,-0.17379944,0.09213465,0.09112098,0.046769824,-0.036732472,0.08299884,0.02734655,0.06433934,0.05046949,-0.07427959,0.0066739046,0.093440995,0.06902078,-0.041393217,-0.07129114,0.030426685,-0.10527082,0.032131467,0.018844264,-0.046292763,0.07912661,0.020516118,-0.13729626,0.0519177,-0.009234781,0.102535225,0.008425235,0.041254353,-0.041666716,0.016373718,0.05197841,0.0798324,-0.034004465,0.078465864,0.14565529,0.015151138,0.065765,0.03813462,-0.06914252,-0.061218962,0.026831603,-0.017775828,0.08122846,-0.09738795,0.0053053247,-0.112781994
good,0.07206061,-0.028456004,-0.03536837,0.099844284,0.09894592,-0.042065762,0.033047102,0.17199719,-0.041737694,0.02267043,-0.08223417,-0.03433772,0.024261786,0.066586696,-0.038743507,0.008944734,-0.0127224205,-0.018145682,-0.017432068,-0.12808222,0.047380555,-0.09104011,0.022175306,-0.0036977439,0.018135741,-0.013214209,0.06319695,-0.061717164,-0.08632715,0.07406386,0.101820044,0.066639654,0.02250794,0.00679283,-0.03994257,0.069536574,0.06694523,-0.08447208,-0.07857182,-0.045050465,-0.092938304,-0.007518346,-0.0610673,-0.010937375,0.089634515,-0.028778631,0.033688545,-0.07971442,0.054202724,0.038504947,0.058061983,-0.044139348,-0.06822251,0.009916107,0.097678706,-0.020560548,-0.047648016,-0.060081437,-0.074217185,0.018984973,-0.004992554,0.010786534,-0.011940632,-0.07693332,-0.16491945,-0.010022293,8.174693e-05,0.13314602,-0.11540402,0.15046611,-0.0069203987,-0.003603172,0.082849175,-0.030595694,0.03569017,0.03072923,0.09519991,-0.079386435,-0.11458812,0.0011230602,-0.013289588,-0.08233502,-0.11463126,0.1433431,-0.14057194,0.0044474667,-0.01745586,0.087706834,0.05476752,-0.060785793,0.10055201,0.08505832,0.027940704,0.08450506,0.11142551,0.0645094,0.06383522,-0.007003883,0.017285777,0.03805837,-0.05524834,0.13648555,0.054527212,-0.09387947,-0.06775582,-0.0984366,0.0423746,0.12497695,-0.08504192,-0.07277767,-0.027267585,-0.11361301,-0.018529465,-0.055281196,0.030661495,-0.09100166,0.029339151,-0.15099204,-3.8857856e-05,-0.11090944,-0.002542097,0.12556799,0.06092457,-0.08171691,-0.035433333,0.056090213,-0.08542666,-0.05935308,-0.03824835,-0.046165235,0.06328667,0.03789254,-0.041649416,-0.07725956,0.024854116,0.13550098,-0.04570985,-0.059362203,-0.027038934,-0.11026704,0.10358173,-0.13840304,-0.04319405,0.014820984,0.0022978233,-0.0491259,-0.015362325,0.06413168,-0.009221356,-0.004669559,0.042783733,-0.09259143,0.0526623,0.046544734,-0.16949324,0.09445839,0.09515077,0.04375769,-0.031745072,0.08284733,0.018795062,0.06378606,0.05177906,-0.070810765,0.0051380955,0.09870373,0.071814656,-0.040149096,-0.06987224,0.026643684,-0.10625106,0.025858643,0.02208243,-0.046337932,0.07593455,0.018319493,-0.1380352,0.047356196,-0.009795085,0.10518283,0.00032650278,0.04359178,-0.038347103,0.014635823,0.054101776,0.08279086,-0.03006458,0.07663287,0.14783669,0.015989365,0.0661315,0.040344056,-0.070570506,-0.056653574,0.03103033,-0.015626397,0.08141018,-0.09555073,0.0003842118,-0.10926071
oh,0.073815525,-0.02903646,-0.029577332,0.11180072,0.09376201,-0.045963928,0.037730236,0.18238132,-0.046431497,0.007268828,-0.08395712,-0.038171507,0.022445522,0.06469258,-0.046748098,0.008067113,-0.0106606055,-0.019214155,-0.022142721,-0.12680168,0.048242368,-0.086244375,0.011983264,-0.0035084218,0.016058184,-0.010795519,0.051006075,-0.05907103,-0.09849419,0.085462265,0.09763995,0.06940353,0.010323493,0.003808575,-0.04441475,0.08163319,0.0692899,-0.07889074,-0.07528785,-0.03770248,-0.09044271,0.0023646695,-0.055232454,-0.012442532,0.09070335,-0.035784908,0.043218285,-0.08185702,0.056848727,0.034090474,0.057296105,-0.04270747,-0.08113563,-0.002185307,0.104540594,-0.01866917,-0.04580649,-0.056342423,-0.06820478,0.01651454,0.0019544607,0.02105335,-0.015292196,-0.074611835,-0.16067752,-0.022235077,4.3671786e-05,0.14133413,-0.09373433,0.14815098,-0.007188476,-0.01647491,0.087520175,-0.027382355,0.046893194,0.03720424,0.08617952,-0.08320194,-0.107247606,-0.00017285961,-0.009990851,-0.09330878,-0.115507014,0.15629092,-0.13377349,0.005771882,-0.025848804,0.08291313,0.055188987,-0.058780044,0.11189745,0.0895448,0.019440541,0.09647367,0.10857661,0.07259737,0.05984519,-0.0035435283,0.015212442,0.042119607,-0.028797599,0.14566031,0.052319832,-0.08787895,-0.06348576,-0.098351486,0.046758372,0.12541753,-0.08472035,-0.060303938,-0.036293853,-0.10720258,-0.017466681,-0.053654682,0.034929156,-0.099850506,0.028261187,-0.15370293,-0.0012624532,-0.10176249,-0.0026676266,0.13378987,0.06456183,-0.07504918,-0.030366784,0.047063936,-0.090662576,-0.062295802,-0.041438296,-0.037845343,0.055460807,0.030523317,-0.038717788,-0.07797657,0.02254847,0.14165208,-0.046705794,-0.06100225,-0.02697,-0.09808215,0.097563334,-0.13892412,-0.031181961,0.026385136,-0.0030270426,-0.036558304,-0.009208318,0.049972754,-0.007387053,-0.001680489,0.04251042,-0.09833946,0.054573603,0.031130336,-0.16629335,0.08226892,0.09352648,0.031285755,-0.039353307,0.085121535,0.012305979,0.06208751,0.055789683,-0.06703543,0.012512509,0.10149541,0.07712356,-0.044386707,-0.073509105,0.036700547,-0.112471685,0.021411195,0.018567061,-0.05180945,0.07181559,0.023947055,-0.14794442,0.051454414,-0.00586465,0.10393678,-0.00073791546,0.035914622,-0.051469628,-0.0024914953,0.050300136,0.07691896,-0.025317078,0.0713247,0.13266793,0.014151238,0.065807596,0.03677711,-0.06022872,-0.051788896,0.016551573,-0.029485632,0.09292157,-0.08369455,-0.006480005,-0.112064354
sure,0.05878655,-0.02447734,-0.028886223,0.09673153,0.097122915,-0.040793125,0.02848866,0.16728728,-0.046393972,0.024265159,-0.08498844,-0.037961807,0.028638015,0.07342416,-0.03254099,0.0041513187,-0.012396309,-0.016717117,-0.01000199,-0.13319023,0.045830566,-0.0821434,0.027931916,0.0026847008,0.017524028,-0.014687447,0.058497448,-0.06364622,-0.079189986,0.070700936,0.10422046,0.062298976,0.025969809,0.012417889,-0.035397604,0.0653439,0.06508734,-0.0878873,-0.075298674,-0.057228263,-0.09678632,-0.012098719,-0.061852433,-0.0033127808,0.08868768,-0.019272948,0.027842136,-0.08468164,0.05293043,0.037842635,0.0552638,-0.051723532,-0.061335232,0.00836686,0.10059668,-0.025714321,-0.05241899,-0.0619686,-0.08001651,0.013631374,-0.02320275,0.006127876,-0.008748829,-0.07240172,-0.16932628,-0.011797321,-0.0005036738,0.124708645,-0.11940661,0.14503169,-0.004050258,-0.0048294542,0.08094341,-0.029385615,0.024254274,0.029417306,0.08931915,-0.07687688,-0.113126434,0.010670716,-0.009527436,-0.07925554,-0.10901813,0.14289191,-0.13523644,0.009844609,-0.018942576,0.09423083,0.055628486,-0.058876693,0.10400972,0.08824028,0.022668645,0.081609085,0.11193103,0.071460515,0.065501004,-0.009962869,0.029949145,0.03217275,-0.06580947,0.13711214,0.055645708,-0.09542216,-0.0730967,-0.09283031,0.04121015,0.119800135,-0.090436555,-0.069134004,-0.03107751,-0.11174134,-0.021923445,-0.06367966,0.03190258,-0.087987274,0.031978887,-0.16347484,-0.0004786871,-0.11238729,0.0033166306,0.122774884,0.06242115,-0.081207775,-0.03559558,0.057812035,-0.08616459,-0.0603662,-0.041253407,-0.04937546,0.066363215,0.037439294,-0.04626574,-0.07275703,0.02310124,0.13260144,-0.04807616,-0.06145791,-0.030792907,-0.123869665,0.09714108,-0.14345649,-0.038887553,0.011241681,-0.0020815409,-0.047511633,-0.022400506,0.0610346,-0.0074145724,-0.0026387149,0.047017008,-0.08374408,0.041321356,0.047249794,-0.17100431,0.09616256,0.09116968,0.050187968,-0.03779389,0.07890622,0.03033441,0.055908408,0.04189989,-0.072804004,0.004645547,0.09432547,0.07860385,-0.037856653,-0.06880888,0.025394838,-0.10538193,0.037661072,0.014337886,-0.043848157,0.08043281,0.027736433,-0.13508253,0.04913105,-0.010989468,0.10324864,0.0011480943,0.033997327,-0.03746353,0.023009192,0.055772774,0.0797053,-0.028946672,0.08395388,0.15497144,0.014720018,0.058121778,0.041353006,-0.07189597,-0.06646748,0.034705486,-0.010880186,0.07585535,-0.09091663,0.008512646,-0.11333789
maybe,0.07555573,-0.027734552,-0.02969778,0.11133939,0.09171519,-0.049820364,0.032367233,0.18695523,-0.048779562,0.009577856,-0.08501108,-0.040136784,0.023371354,0.06662653,-0.04095781,0.0036891946,-0.006444724,-0.016852563,-0.024597809,-0.12744302,0.050380133,-0.09195743,0.015443346,-0.0024700006,0.0050269505,-0.011436634,0.049368206,-0.05755118,-0.100973696,0.08287774,0.10031421,0.06533938,0.019608937,0.003938708,-0.043052502,0.07817099,0.069318555,-0.07496792,-0.07882019,-0.031390283,-0.08755263,0.01018486,-0.054285835,-0.008683633,0.088353,-0.03667027,0.040021263,-0.07511149,0.05166311,0.036177564,0.056310356,-0.043505438,-0.079541326,-0.005804173,0.10508873,-0.014799821,-0.04564018,-0.05299747,-0.07146308,0.014482095,0.002611372,0.019090898,-0.020248633,-0.06281204,-0.15190782,-0.027036585,0.0051904637,0.1390294,-0.08951565,0.14424832,-0.013583187,-0.024363743,0.08648223,-0.029994177,0.041891042,0.04224421,0.08567085,-0.08495771,-0.10669527,-0.0054229405,-0.008765313,-0.094617344,-0.119925,0.16170521,-0.13134675,0.010026343,-0.026703518,0.08275835,0.052770503,-0.05901805,0.11890329,0.0844605,0.015636077,0.09851618,0.106774434,0.069546245,0.05612919,-0.0044999174,0.017353015,0.041411083,-0.02574818,0.14444844,0.054456286,-0.08636959,-0.06600759,-0.09749674,0.047570065,0.12590076,-0.08763742,-0.061921,-0.039540708,-0.109596334,-0.022834942,-0.056478646,0.03314327,-0.09811894,0.025183164,-0.1566981,-0.0047521093,-0.10492312,-0.0036915112,0.13026577,0.06084179,-0.08055916,-0.028932443,0.049371384,-0.09295224,-0.07764133,-0.03586818,-0.03920415,0.049844217,0.0367618,-0.04164093,-0.08253801,0.023607912,0.13718681,-0.04689248,-0.06255211,-0.029499337,-0.104887515,0.10281783,-0.14428174,-0.030974701,0.029634003,0.00071647164,-0.03739565,-0.0068778438,0.04420889,-0.0066061146,0.0037669276,0.041827835,-0.09953568,0.056440126,0.032216,-0.16380155,0.07915602,0.089131825,0.022027578,-0.041493174,0.08938045,0.015461411,0.060655013,0.05781919,-0.06844669,0.018599195,0.09947503,0.08220209,-0.041920807,-0.07379143,0.036199007,-0.112290695,0.016354328,0.015855245,-0.051951166,0.069438405,0.025510045,-0.14992425,0.05537409,-0.0043355958,0.09998704,0.0038992974,0.038593385,-0.054792635,-0.0058173225,0.048375282,0.06959478,-0.017672041,0.07502628,0.12760827,0.019070698,0.06510714,0.036726262,-0.062586196,-0.053319085,0.02024938,-0.02764466,0.09137427,-0.08289845,-0.0091744885,-0.11054402
first,0.07441892,-0.027880892,-0.034957428,0.10210359,0.09165606,-0.044390943,0.033118762,0.17814098,-0.04630834,0.022380369,-0.084664986,-0.040816326,0.020148695,0.06797261,-0.042189024,0.0072303293,-0.01188753,-0.022318907,-0.026633678,-0.12637351,0.050405983,-0.09069495,0.014609339,-0.005139175,0.01270748,-0.014278706,0.054860618,-0.0594221,-0.08833232,0.08404183,0.102123156,0.07370554,0.01853027,0.0019137935,-0.046404805,0.07754211,0.06929719,-0.07221266,-0.07877599,-0.03672795,-0.08764841,-0.0006270266,-0.05391254,-0.010503924,0.0870996,-0.035090044,0.04322606,-0.07818296,0.05801844,0.032124862,0.058497906,-0.042827833,-0.072511904,-0.0011937644,0.10666058,-0.020252066,-0.045693647,-0.050688647,-0.06574124,0.021434817,2.7751219e-05,0.014560567,-0.015001033,-0.08029794,-0.1623753,-0.020762002,0.0018305805,0.140525,-0.10417687,0.14894964,-0.0085433265,-0.015473677,0.08304001,-0.02629108,0.04109772,0.030499913,0.08906627,-0.08346816,-0.108023584,0.006154977,-0.009785688,-0.08722996,-0.11507638,0.14485009,-0.13934241,0.0014420144,-0.025396775,0.085229866,0.060268935,-0.055822916,0.10920169,0.08804969,0.025980106,0.09430191,0.10645525,0.06776571,0.06593092,0.0029049742,0.020376198,0.04100183,-0.035842195,0.14308426,0.053740244,-0.08858706,-0.066393994,-0.092941016,0.044573136,0.12306536,-0.09021639,-0.069086164,-0.030792607,-0.1051746,-0.020311277,-0.053570475,0.033184163,-0.0960673,0.025344137,-0.15065385,-0.005838487,-0.104665466,-0.004022109,0.12955928,0.060980912,-0.07498246,-0.033886023,0.053495657,-0.09142469,-0.064555205,-0.03509038,-0.03904163,0.05136973,0.03144073,-0.041236784,-0.07840741,0.021636978,0.13921222,-0.053516567,-0.055726785,-0.021561427,-0.10400905,0.103839174,-0.1391788,-0.032893207,0.025328102,0.0064415415,-0.047525384,-0.011902958,0.05090815,-0.009562733,-0.002575396,0.040357772,-0.092046864,0.056505546,0.03895438,-0.17301068,0.08250039,0.092245914,0.036770888,-0.036252555,0.08517378,0.015880091,0.065579906,0.05552426,-0.0693644,0.008630527,0.101902544,0.07359033,-0.04175121,-0.07086524,0.035053283,-0.11719246,0.025287624,0.019170852,-0.051305585,0.07552226,0.020617193,-0.14868446,0.05706552,-0.0030093943,0.1073909,0.003448987,0.038292058,-0.0513944,0.0064228214,0.049413882,0.079962716,-0.030990573,0.07124993,0.13789922,0.015702482,0.06114131,0.034502838,-0.05993467,-0.054049596,0.025631342,-0.020892974,0.091490455,-0.09112617,-0.002979799,-0.113234
little,0.07167925,-0.030735228,-0.033679355,0.11133014,0.09529381,-0.04144242,0.039468203,0.18047099,-0.05168924,0.01592279,-0.085310325,-0.039803717,0.029364854,0.07366375,-0.044560492,0.0061258627,-0.009960459,-0.012909221,-0.017266063,-0.1324731,0.053801164,-0.0848764,0.024389032,0.0033194893,0.017894115,-0.0113429045,0.059459575,-0.060651314,-0.08861814,0.07959496,0.10042945,0.06278518,0.025071763,0.004475171,-0.03908999,0.072450124,0.06746717,-0.08637285,-0.07748628,-0.050828412,-0.096689045,-0.008782142,-0.059997182,-0.003345038,0.08828844,-0.025229346,0.029936219,-0.08589536,0.05065872,0.03718697,0.057216022,-0.049268283,-0.07100906,0.0022972121,0.10171282,-0.022741621,-0.05056536,-0.063269995,-0.07974285,0.013931333,-0.011489667,0.0075478554,-0.010172714,-0.071572304,-0.16984497,-0.015851215,0.0037486716,0.13742332,-0.109163724,0.14949378,-0.0057727294,-0.008201315,0.084601976,-0.02970191,0.033512518,0.038120836,0.09494734,-0.079068094,-0.11315125,0.00283454,-0.008587826,-0.07980388,-0.114283726,0.14502986,-0.14145021,0.0065034186,-0.019977251,0.0885447,0.050304055,-0.058489367,0.10653687,0.08337193,0.026547307,0.08606335,0.11502552,0.06678415,0.06303865,-0.011858912,0.024670418,0.036443383,-0.055019215,0.13508919,0.061103545,-0.08684647,-0.06790917,-0.10128563,0.042919125,0.12482057,-0.08585787,-0.07163792,-0.030647155,-0.113748275,-0.023143716,-0.056540396,0.03614053,-0.0876881,0.028954923,-0.1539223,-0.0045834235,-0.10570969,0.00034660922,0.1271054,0.059828162,-0.082522,-0.036423016,0.054463327,-0.08844952,-0.061283518,-0.039860114,-0.045113064,0.065477766,0.034680493,-0.043408923,-0.07488142,0.0244406,0.13741966,-0.038573753,-0.055628624,-0.024006506,-0.11546487,0.10011437,-0.14067066,-0.03673928,0.011368064,-0.00044795024,-0.040033773,-0.017746584,0.06070787,-0.004946932,-0.0016982121,0.04476373,-0.08929682,0.047282964,0.043819185,-0.16737406,0.09581941,0.09266846,0.03909532,-0.03288603,0.08153234,0.022192657,0.06372638,0.04227098,-0.072300225,0.008689548,0.093885005,0.07702421,-0.038418815,-0.07387604,0.02888388,-0.10084123,0.024489332,0.015852004,-0.0439955,0.07567761,0.02406257,-0.13486196,0.049994998,-0.006042969,0.098636,0.00060063845,0.039435502,-0.03861524,0.016759854,0.049047157,0.07924773,-0.02780593,0.07517176,0.13914073,0.008848851,0.06312043,0.03832257,-0.06306916,-0.058154974,0.024402097,-0.01313514,0.0757118,-0.08886598,0.0010065407,-0.10531128
nervous,0.07642217,-0.02620643,-0.037646394,0.10624172,0.07426679,-0.040673185,0.023295373,0.1815948,-0.041024223,0.01620609,-0.09586316,-0.040298246,0.016820261,0.030847019,-0.034512773,0.00092523143,-0.0032482736,-0.032116648,-0.03619594,-0.11331532,0.03939114,-0.09816535,0.0033544784,-0.015640844,-0.0077484073,-0.009268965,0.04784128,-0.058905646,-0.10245657,0.08426685,0.08282495,0.07217014,0.011138837,-0.0077654286,-0.047829054,0.0873802,0.06490108,-0.06412991,-0.08342474,0.0027783555,-0.07763889,0.033073872,-0.052393246,-0.023451608,0.09512295,-0.052638445,0.059423804,-0.06798787,0.06262021,0.017030675,0.0717322,-0.037960205,-0.08622485,-0.0054570585,0.10210405,-0.009419688,-0.03859268,-0.045487393,-0.052933782,0.031844795,0.023757374,0.036295176,-0.045973305,-0.06575686,-0.12781994,-0.028890122,-0.0014795269,0.14405517,-0.0716512,0.14181913,-0.014972114,-0.029347923,0.093036674,-0.03439158,0.052748363,0.028092867,0.08813272,-0.097412705,-0.09755887,-0.011979517,-0.023950523,-0.10982015,-0.1206633,0.15296058,-0.12538743,-0.0050480408,-0.046337694,0.07442029,0.060445555,-0.05158456,0.124752484,0.08375511,0.019536205,0.1063323,0.10367984,0.059303936,0.05774383,0.01979286,-0.00787947,0.05730277,0.007892809,0.15122372,0.04687393,-0.08198008,-0.048790958,-0.090752885,0.061415695,0.11876435,-0.09510188,-0.05958284,-0.04155977,-0.109053604,-0.015276926,-0.05292361,0.02580909,-0.11224603,0.01297441,-0.14224733,0.0037498805,-0.09687687,-0.019853793,0.13872042,0.05072292,-0.07258135,-0.020838799,0.05416628,-0.090628,-0.09038352,-0.035725843,-0.02967914,0.037425917,0.040919352,-0.027881132,-0.081729375,0.01657622,0.13759646,-0.053815544,-0.05085292,-0.025306866,-0.09032092,0.120732866,-0.1328525,-0.02742841,0.048796054,0.0003484259,-0.049521536,0.0053991964,0.03142741,-0.008546129,-0.006495384,0.014821064,-0.11656239,0.087954834,0.025133075,-0.16127427,0.058476284,0.08189537,0.016166545,-0.046275523,0.10055118,0.008435051,0.071005605,0.078710444,-0.061473496,0.022825409,0.11067196,0.06636065,-0.057256524,-0.07893616,0.038545866,-0.13282996,0.016095586,0.032205734,-0.068293795,0.07566906,0.010451294,-0.1557796,0.05941927,7.2051924e-05,0.097449996,0.020498231,0.0428938,-0.070171155,-0.02525944,0.03105651,0.057947986,-0.013925178,0.065637335,0.116049156,0.021533076,0.06407391,0.040650968,-0.059202068,-0.03326816,0.016264923,-0.052462015,0.111258775,-0.08120402,-0.007376808,-0.11438725
also,0.071979016,-0.029426511,-0.032036636,0.10522708,0.09871734,-0.04598079,0.03859879,0.18064019,-0.045491833,0.015139986,-0.08497137,-0.037762366,0.026002193,0.07356089,-0.037104633,0.009502499,-0.013793445,-0.013908928,-0.012216937,-0.13227023,0.052430365,-0.08717885,0.022868155,0.002679901,0.015626907,-0.00920986,0.057068884,-0.064062655,-0.087433174,0.078093104,0.103766344,0.063888006,0.02375203,0.011073413,-0.037903577,0.072135605,0.067720376,-0.08690599,-0.08031379,-0.05071773,-0.09678194,-0.009072871,-0.06448669,-0.0081170555,0.090723604,-0.024711376,0.026278405,-0.08722827,0.053363375,0.03593649,0.055245887,-0.048225943,-0.06270698,0.0044857287,0.10125301,-0.025348168,-0.04910843,-0.06282277,-0.07836509,0.015404608,-0.014035715,0.0073730657,-0.009260393,-0.073829964,-0.16858101,-0.015441168,0.004573481,0.12670359,-0.11526409,0.14395797,-0.0083567435,-0.0042995326,0.079314664,-0.03244549,0.03196079,0.03447715,0.09394773,-0.07226348,-0.11709914,0.005963543,-0.011416463,-0.079944484,-0.10961887,0.14815766,-0.1407484,0.009451672,-0.017859075,0.09014291,0.05053282,-0.061582234,0.10689367,0.08804516,0.025428377,0.07855809,0.11473475,0.06556338,0.05947012,-0.013587648,0.023895815,0.04122369,-0.05975781,0.13948296,0.058757715,-0.09311159,-0.07016979,-0.09734907,0.041706834,0.12139775,-0.08768655,-0.07311657,-0.027895099,-0.11446749,-0.02336067,-0.056725178,0.033144373,-0.08877591,0.032812133,-0.15359151,-0.0013791888,-0.10987809,0.0016954015,0.120116256,0.05955699,-0.07675713,-0.03547302,0.053417284,-0.08494611,-0.056223273,-0.038729906,-0.046499256,0.06505537,0.033987857,-0.047970217,-0.075146675,0.027739963,0.1310727,-0.041114625,-0.060962208,-0.024410008,-0.11737847,0.100042835,-0.14360441,-0.038011577,0.015010734,-0.0026060056,-0.045145944,-0.02005135,0.060776755,-0.003093755,0.00037517352,0.042672485,-0.09207686,0.04617433,0.04387264,-0.16439265,0.098422535,0.09128541,0.046677154,-0.0350709,0.07843834,0.021566866,0.06013224,0.040666305,-0.072193064,0.006146717,0.09719332,0.07644201,-0.035809115,-0.06755992,0.025802532,-0.10323847,0.032246742,0.01751943,-0.047322128,0.07550619,0.027960949,-0.13419224,0.046940587,-0.008200152,0.099044226,0.0016976799,0.037111156,-0.039000366,0.021108547,0.055566043,0.07946851,-0.031972006,0.076543994,0.1443611,0.014710269,0.06280233,0.037511174,-0.07098954,-0.06453812,0.030899568,-0.013671571,0.07930409,-0.0923729,0.003440057,-0.106943354
excited,0.07580548,-0.01970611,-0.035910156,0.10410222,0.087036885,-0.040132426,0.028316468,0.18345922,-0.042991288,0.014460493,-0.092008896,-0.046277434,0.01088203,0.04819035,-0.03339359,-0.0007099394,-0.004816226,-0.022724768,-0.03372048,-0.1186163,0.036728207,-0.09715227,0.010196477,-0.015457142,-0.0021700396,-0.011397045,0.03968803,-0.061095063,-0.093699165,0.08463293,0.08672957,0.068142526,0.011800596,0.00043104053,-0.051103957,0.08330204,0.06865996,-0.065311365,-0.0772165,-0.013570236,-0.0838342,0.017251244,-0.045711536,-0.012301588,0.09360449,-0.047441654,0.04434566,-0.070307754,0.060513906,0.023655863,0.0672428,-0.04178323,-0.07770766,-0.0064798426,0.10223739,-0.016765285,-0.03836978,-0.04261586,-0.061432987,0.025187802,0.0124115925,0.025118321,-0.030245997,-0.06795122,-0.14141768,-0.03172077,-0.0026679765,0.14681588,-0.08313031,0.14066343,-0.016617065,-0.025628345,0.08579705,-0.03236007,0.04285584,0.029276725,0.08215616,-0.090067744,-0.09577406,-0.006359458,-0.017016018,-0.104083344,-0.11908399,0.15629962,-0.1262712,0.002279464,-0.03327963,0.08390979,0.059471168,-0.05613245,0.12032539,0.09139425,0.023489397,0.10304717,0.105839245,0.06073155,0.062398713,0.01564499,0.013258033,0.044314075,-0.010843555,0.14777479,0.051398374,-0.083509125,-0.05780663,-0.08569124,0.057797983,0.11653904,-0.09407979,-0.067104176,-0.03493988,-0.113041215,-0.019810801,-0.05934438,0.032361172,-0.105238095,0.01999842,-0.15369546,-0.00053664466,-0.10724392,-0.015674395,0.13758938,0.04869827,-0.06375306,-0.028090516,0.05233394,-0.093628615,-0.083609164,-0.03622976,-0.04048037,0.044275675,0.03221712,-0.033139754,-0.08438732,0.01187605,0.14001806,-0.05430215,-0.055226285,-0.02444824,-0.09714941,0.1149555,-0.14062287,-0.030133909,0.040942665,0.006555973,-0.043181136,-0.008457873,0.03434838,-0.014229915,0.00018711564,0.025301762,-0.10679913,0.07068929,0.029831087,-0.16781232,0.06759536,0.07928764,0.022748906,-0.050160877,0.0983713,0.008291394,0.06377767,0.06928766,-0.067921735,0.0183715,0.09962935,0.07749457,-0.048438385,-0.07522568,0.039735656,-0.12534235,0.024731733,0.023202537,-0.06253172,0.08191016,0.015687509,-0.15993614,0.06429557,0.00041317128,0.100450605,0.014160502,0.04037151,-0.066891454,-0.005837886,0.038945355,0.07431661,-0.019978967,0.07184395,0.12808834,0.015975172,0.060436226,0.03463281,-0.053540125,-0.037826363,0.016654234,-0.033949032,0.102858365,-0.087276645,-0.0035286027,-0.117913075
says,0.08390076,-0.02732239,-0.028833276,0.10541192,0.07602202,-0.04754622,0.020849938,0.18197231,-0.044171754,0.004407511,-0.08340792,-0.03318688,0.0132405255,0.03806043,-0.0359402,0.0016968535,-0.007849015,-0.035569627,-0.029961504,-0.10842418,0.043994926,-0.08694988,-0.0033241622,-0.008751501,-0.008565882,0.00065119704,0.036126122,-0.04742545,-0.11021103,0.094294384,0.09209816,0.058409564,0.0070822737,-0.008118123,-0.048758835,0.095387205,0.06558281,-0.058917973,-0.07800796,0.0060018837,-0.07527431,0.033368755,-0.03747346,-0.0115055945,0.090709396,-0.056641456,0.05350981,-0.059578754,0.054599185,0.017959313,0.06946794,-0.025973434,-0.10324629,-0.015587515,0.10995145,-0.00758672,-0.025552522,-0.04112336,-0.04983622,0.02637874,0.028500784,0.03490259,-0.04500411,-0.05859557,-0.13068952,-0.036240138,0.00015922145,0.15133657,-0.05879523,0.14159562,-0.034160648,-0.055347312,0.09067641,-0.030093158,0.0527328,0.04029553,0.07154414,-0.09191439,-0.09121792,-0.014567752,-0.0202204,-0.1095486,-0.12240139,0.17216876,-0.10721692,0.014468309,-0.051004242,0.07510243,0.058797676,-0.056259554,0.12890375,0.08056618,-0.0021558192,0.10881917,0.090072,0.06947742,0.054049022,0.013502397,-0.0020755816,0.05882635,0.02701392,0.15081692,0.04775007,-0.07637719,-0.049198408,-0.08626128,0.063401245,0.12278678,-0.090746306,-0.04319994,-0.05435309,-0.106609404,-0.024769232,-0.054994997,0.031418078,-0.11400135,0.013872887,-0.15353982,-0.0012702829,-0.09604504,-0.017317941,0.14600666,0.050617732,-0.07199177,-0.0050505428,0.04013456,-0.0918761,-0.092674404,-0.032926906,-0.021654472,0.025801318,0.041681785,-0.022145834,-0.08726305,0.016632315,0.14839408,-0.04494291,-0.055439074,-0.029124618,-0.07761322,0.10691028,-0.14157636,-0.026905702,0.059485614,-0.0010696625,-0.045527853,0.009011622,0.033953737,-0.007860861,0.004514175,0.019244274,-0.116752975,0.08341363,0.01132628,-0.16006239,0.060036015,0.0816172,-0.0062361797,-0.042223357,0.10888865,0.0026418392,0.06868903,0.083772294,-0.062386427,0.023531917,0.10091426,0.07328313,-0.051951855,-0.08644511,0.044616863,-0.12904617,0.01327332,0.023471933,-0.071234345,0.06425057,0.010802844,-0.16328913,0.056116927,-0.002883159,0.10153035,0.017553817,0.032725483,-0.06907643,-0.042499095,0.04067809,0.060046293,-0.005639588,0.063377276,0.106369145,0.029351253,0.06408886,0.044465013,-0.04667374,-0.024428546,-0.0025131584,-0.056371685,0.12539464,-0.073414974,-0.010949427,-0.11488456
asking,0.07450936,-0.023956776,-0.029722761,0.09774591,0.09489421,-0.046450973,0.03268204,0.17810419,-0.04375317,0.018509328,-0.09016445,-0.046294108,0.016982784,0.06733357,-0.04047703,0.008760427,-0.018748514,-0.02061992,-0.02538648,-0.13268955,0.047258295,-0.08451805,0.018417692,-0.005919994,0.010204884,-0.011758591,0.05400652,-0.05908299,-0.08486153,0.0805791,0.10202343,0.07296389,0.017098382,0.009757551,-0.048164528,0.075081974,0.07186204,-0.07167594,-0.0767194,-0.03671365,-0.089866675,-0.0026210716,-0.053127132,-0.007683473,0.09068442,-0.031215223,0.04174475,-0.08408864,0.057031557,0.033287704,0.060318448,-0.04055756,-0.069516204,-0.0035640704,0.103896044,-0.022983447,-0.04575258,-0.053330433,-0.06961462,0.016859401,-0.0037258614,0.021434586,-0.018789625,-0.08123357,-0.15719567,-0.01967999,0.0037502316,0.13862436,-0.106887154,0.14596136,-0.013630878,-0.014440849,0.08378527,-0.026988188,0.03967879,0.029740198,0.09110008,-0.08146764,-0.10864326,0.0046641505,-0.008905909,-0.09001285,-0.11352796,0.14632374,-0.13096976,0.003236866,-0.02168009,0.08595507,0.055470478,-0.06285599,0.10522851,0.09154478,0.025393926,0.09382676,0.10951439,0.06996682,0.06947642,-0.0009331568,0.018773109,0.04094701,-0.039047383,0.14754358,0.048021615,-0.09226478,-0.070098266,-0.094267234,0.047349174,0.12129844,-0.0870609,-0.071377784,-0.027065456,-0.10919585,-0.0199622,-0.056246955,0.03141914,-0.10138618,0.029256308,-0.15454727,0.0015081967,-0.108742975,-0.0076649995,0.12967421,0.060101185,-0.07468677,-0.034596436,0.052825462,-0.089986116,-0.067977265,-0.038724773,-0.04177043,0.056204475,0.028641805,-0.04012213,-0.07703542,0.018655494,0.13309093,-0.05730586,-0.0591663,-0.022004604,-0.10332637,0.10285682,-0.14141673,-0.03435859,0.022589162,0.005658279,-0.04203562,-0.015652241,0.04645787,-0.0057439315,0.0005098417,0.038563278,-0.09091216,0.055519443,0.042457942,-0.17056687,0.08320301,0.09011298,0.032951053,-0.03707396,0.084611446,0.01815555,0.061396617,0.05280035,-0.071349256,0.013901429,0.09693128,0.07715481,-0.04388415,-0.07118815,0.034511834,-0.116681784,0.025776943,0.019023515,-0.04811044,0.07402844,0.025725996,-0.1509453,0.05577472,-0.0061496063,0.109300196,0.0060462677,0.036477465,-0.0491412,0.0096720755,0.050220944,0.07742509,-0.03102471,0.07234248,0.14137898,0.01694167,0.0581696,0.031715915,-0.061718106,-0.052061003,0.019557407,-0.019664781,0.09108089,-0.08870384,-0.0024685848,-0.11122903
saying,0.06772593,-0.03296992,-0.0312117,0.10776079,0.09862508,-0.04868377,0.03751879,0.18298095,-0.050654788,0.013632622,-0.08260111,-0.044781752,0.023476059,0.07413748,-0.039967168,0.0041601486,-0.010136616,-0.008881212,-0.018931009,-0.13259976,0.05141383,-0.087864324,0.019657172,0.0028760862,0.019359319,-0.012775912,0.054477807,-0.065086044,-0.08815915,0.08517178,0.10027872,0.067846596,0.02245783,0.008555447,-0.04111724,0.07468888,0.0653201,-0.086437844,-0.078710735,-0.05290429,-0.095368594,-0.008507482,-0.051941767,-0.0045588524,0.08813085,-0.026771344,0.032076653,-0.08606109,0.05372884,0.039412897,0.05714752,-0.050181415,-0.06624909,-0.0005154579,0.09840573,-0.024779987,-0.04989466,-0.0600633,-0.076448254,0.016200181,-0.014541013,0.007800034,-0.009242033,-0.07590622,-0.16964512,-0.014759751,0.0010603456,0.13804367,-0.110466406,0.14627779,-0.006829436,-0.011512121,0.0784449,-0.03078158,0.038411293,0.034246348,0.08941114,-0.076106146,-0.1104098,0.005867013,-0.012551896,-0.082436584,-0.11075848,0.15354015,-0.13698934,0.011399662,-0.022633074,0.09172739,0.055560492,-0.061378945,0.1109506,0.08359145,0.021517854,0.08853376,0.10977878,0.07454802,0.06632107,-0.014555936,0.029302012,0.035442747,-0.05620879,0.14080109,0.057550024,-0.08466018,-0.07522195,-0.09790903,0.041057073,0.12115995,-0.0853157,-0.07187213,-0.028046055,-0.11373452,-0.025536714,-0.05775315,0.032297004,-0.089157484,0.031917144,-0.16115011,-0.0060017062,-0.10815613,-0.003125247,0.12329098,0.06308115,-0.07403185,-0.03857016,0.057881467,-0.09217471,-0.05746338,-0.041472297,-0.043919493,0.059133947,0.030944495,-0.04576536,-0.07267623,0.02306857,0.13348189,-0.039927717,-0.06520154,-0.027719278,-0.116601445,0.09083809,-0.13984664,-0.03331795,0.014054174,-0.0013655017,-0.041978847,-0.01590023,0.05272496,-0.0036730547,0.0003835919,0.045933675,-0.08467483,0.04378474,0.038193807,-0.16983524,0.089112654,0.09259486,0.036932442,-0.04185035,0.078966975,0.02396968,0.05721346,0.045993544,-0.067344934,0.0056194826,0.090906635,0.0829958,-0.0360582,-0.06726206,0.0338759,-0.09998768,0.027746953,0.014090133,-0.03863474,0.07707429,0.03601065,-0.14607838,0.05189924,-0.0074733472,0.098546945,-0.0010234592,0.03820605,-0.03882508,0.010725189,0.052223645,0.07307543,-0.024915375,0.07582447,0.13886604,0.013246191,0.06298368,0.03903924,-0.06161933,-0.062023487,0.027584687,-0.011449889,0.07759814,-0.086072326,-0.00274882,-0.106821604
feeling,0.07638094,-0.01699955,-0.03736859,0.09569933,0.0765211,-0.03894256,0.015032333,0.17509577,-0.04249915,0.01388234,-0.093548365,-0.045278773,0.01327896,0.029078562,-0.034153845,0.0027526305,-0.0040658955,-0.038670924,-0.03576413,-0.113764934,0.031648193,-0.09703538,-0.0021106966,-0.021215128,-0.007244732,-0.0026448306,0.034674723,-0.051962286,-0.097759396,0.08687482,0.08141622,0.07847235,-0.00034590065,-0.012031382,-0.05164274,0.09469289,0.064503305,-0.060126398,-0.081727356,0.0021726051,-0.07712327,0.031192653,-0.04615647,-0.024851141,0.09697012,-0.058366075,0.060798272,-0.06547373,0.059400246,0.013589687,0.069594994,-0.030811813,-0.09055104,-0.0036839806,0.11027853,-0.013637869,-0.03754031,-0.035148904,-0.05040051,0.034834594,0.030233085,0.03492054,-0.039814666,-0.074208915,-0.13037728,-0.031235434,0.0008728603,0.14965658,-0.06846491,0.14902277,-0.019176599,-0.029970922,0.08295183,-0.029405344,0.04937993,0.03202913,0.08164835,-0.09696101,-0.0869972,-0.009877339,-0.02331192,-0.107758746,-0.1201587,0.15377782,-0.12215959,-0.0066654575,-0.044889413,0.078751914,0.06412147,-0.050027825,0.11493316,0.08357072,0.021090752,0.11078619,0.095012225,0.05749073,0.066530906,0.0278118,0.00014987847,0.053993978,0.016614974,0.14885126,0.03997807,-0.08029679,-0.048892498,-0.08449949,0.063019805,0.113209486,-0.094592236,-0.055479057,-0.03677526,-0.10636559,-0.020133134,-0.056381613,0.024579972,-0.11069184,0.01500415,-0.14349015,-0.00034416228,-0.09601266,-0.028191313,0.14738762,0.04288569,-0.064115755,-0.022368565,0.056959823,-0.09017211,-0.08539712,-0.028599337,-0.029599873,0.037156634,0.034568798,-0.026094375,-0.082940266,0.013179707,0.14780964,-0.056233622,-0.051861323,-0.022574896,-0.08609107,0.11995822,-0.13533582,-0.03101894,0.05188489,0.007908666,-0.046883933,-0.0012276035,0.034751922,-0.014033086,-0.0108791385,0.020394947,-0.11777274,0.091755174,0.025823742,-0.17359217,0.05993493,0.08099965,0.013152786,-0.049775917,0.09839379,0.00030587235,0.0718348,0.08156699,-0.06360631,0.024590673,0.10861582,0.06352598,-0.056518473,-0.07745019,0.040748484,-0.14057659,0.018214729,0.029261515,-0.06720128,0.07451947,0.0056958506,-0.16062415,0.065500915,0.0024707257,0.10585196,0.019406501,0.036952343,-0.07410044,-0.02931475,0.03236631,0.06518526,-0.013114784,0.061782375,0.11145942,0.025499392,0.0594498,0.039355915,-0.051049218,-0.025820598,0.011505291,-0.049037613,0.11680109,-0.083974496,-0.0019773957,-0.11592409
even,0.06794914,-0.028921265,-0.026149042,0.103933245,0.099663965,-0.045477834,0.038848214,0.17935707,-0.05096089,0.015764242,-0.083177544,-0.04251083,0.025370652,0.07154787,-0.04066235,0.0021313212,-0.010080469,-0.011696048,-0.017941937,-0.13603024,0.054277238,-0.08581799,0.019810354,0.0030103403,0.012665467,-0.014821191,0.060891528,-0.059897736,-0.08993295,0.0833687,0.10464396,0.062014,0.022802962,0.009009289,-0.040434394,0.0728895,0.07163464,-0.083931476,-0.07586349,-0.048527557,-0.09251989,-0.009544137,-0.05596543,-0.0023300808,0.09026462,-0.027691538,0.034280527,-0.08204226,0.052545704,0.040157497,0.05735373,-0.05237571,-0.06861227,0.00089855405,0.099456266,-0.0198122,-0.05177483,-0.063423365,-0.079408795,0.009737916,-0.017231433,0.012050196,-0.0068437844,-0.07514139,-0.16506884,-0.015170794,0.0061413245,0.13719484,-0.11211042,0.14525469,-0.005008498,-0.010030439,0.08213104,-0.03149539,0.036938198,0.0400445,0.08736101,-0.074046694,-0.109653406,0.004181389,-0.011859296,-0.086415716,-0.11316963,0.1567632,-0.13580334,0.015215027,-0.025607737,0.088601395,0.0555913,-0.05621986,0.1095984,0.08850141,0.02457766,0.08357191,0.11353855,0.06797019,0.06282977,-0.01431831,0.02949125,0.035442922,-0.051160462,0.13904059,0.055542197,-0.08953145,-0.07439827,-0.09768548,0.04366952,0.121642046,-0.08746757,-0.06577511,-0.032291725,-0.107006766,-0.02315739,-0.060457893,0.032145627,-0.08733149,0.03062851,-0.15948924,-0.0071758237,-0.11045815,-0.0016680313,0.1272049,0.059958264,-0.077429116,-0.035296466,0.05471074,-0.09167244,-0.058627047,-0.04065538,-0.0398228,0.057758704,0.03336742,-0.046485856,-0.07690654,0.023774546,0.13097067,-0.042293,-0.06187463,-0.024590699,-0.1152751,0.0936351,-0.14317854,-0.032115325,0.017648328,0.0006880786,-0.03841883,-0.016765028,0.057608724,-0.00822988,-0.0007212463,0.044784762,-0.0870664,0.0476038,0.039041117,-0.16760151,0.09169736,0.09189263,0.041569304,-0.038805343,0.08315804,0.020928016,0.05615521,0.04321555,-0.06934941,0.0095824385,0.09611982,0.08249005,-0.035331782,-0.07055071,0.02925419,-0.099948004,0.030257892,0.016733646,-0.040863656,0.074745946,0.0315726,-0.14497599,0.054131575,-0.005430248,0.095930494,-0.0001647076,0.039264537,-0.037316754,0.014271666,0.055172846,0.07560517,-0.025008526,0.076565586,0.14065959,0.012433705,0.06470816,0.038776588,-0.06783796,-0.06328662,0.02564169,-0.01738386,0.07712227,-0.08982897,0.0011842011,-0.10404955
need,0.06489977,-0.027088305,-0.025890373,0.10301936,0.10605327,-0.04446728,0.037445065,0.17636222,-0.049432807,0.019547103,-0.083606325,-0.037033476,0.022162369,0.075672776,-0.038535472,0.0025086328,-0.013612631,-0.0072605717,-0.012727387,-0.14048243,0.050733533,-0.080148436,0.023875665,0.0032282192,0.022829482,-0.01643066,0.059068635,-0.06455126,-0.08018142,0.08593079,0.102167144,0.0629231,0.028485285,0.011759662,-0.0358123,0.0727362,0.06704408,-0.08677854,-0.07416404,-0.057652667,-0.09165986,-0.017305499,-0.05414592,-0.0010216215,0.08990292,-0.022237698,0.028147446,-0.08293186,0.054452397,0.036633354,0.05562665,-0.045912907,-0.070608854,0.0066771484,0.100772224,-0.024902267,-0.052374147,-0.059399974,-0.0779657,0.010043572,-0.02512016,0.008618446,-0.0009679075,-0.07855629,-0.17348166,-0.015482543,0.0035433685,0.1331179,-0.12080344,0.1470941,0.0012842217,-0.003462082,0.07792606,-0.0244357,0.035147212,0.033742115,0.09278759,-0.07663583,-0.117368385,0.011661619,-0.010793721,-0.076616876,-0.105541065,0.14823145,-0.13698538,0.011065302,-0.024547828,0.095920675,0.059455834,-0.057964616,0.10469075,0.08746262,0.019951198,0.08412851,0.112914056,0.07656155,0.06871601,-0.013275451,0.03249168,0.032460045,-0.06384151,0.1384157,0.053739406,-0.08787365,-0.07606082,-0.095172316,0.041840117,0.121221356,-0.08303472,-0.06802199,-0.027025634,-0.11105908,-0.031191913,-0.06063211,0.035920125,-0.08442174,0.033692505,-0.16267702,-0.0057605514,-0.10872661,0.0005396055,0.12802531,0.06867549,-0.07776391,-0.043102864,0.056540746,-0.083659075,-0.051563818,-0.040702216,-0.042322095,0.06754237,0.026081996,-0.04429064,-0.07092707,0.02229082,0.13071564,-0.04053577,-0.066328555,-0.024965778,-0.11955028,0.08774061,-0.13788593,-0.036415234,0.010386069,0.0013481698,-0.037785515,-0.015040147,0.055550262,-0.006052918,-0.008359636,0.049896125,-0.077474475,0.041806176,0.042672124,-0.17316727,0.09119491,0.094055966,0.045555536,-0.03422161,0.07996805,0.024915487,0.05917063,0.037263345,-0.07027089,0.0014222958,0.08970786,0.07789029,-0.03536575,-0.06609754,0.02814078,-0.10157822,0.03041785,0.008909434,-0.03606282,0.07429696,0.035129033,-0.14366415,0.04794641,-0.011869462,0.098436475,-0.0018896739,0.035459656,-0.030880388,0.01813281,0.05946573,0.078862414,-0.031140445,0.07459827,0.14327204,0.010826912,0.061622437,0.031799816,-0.066854,-0.06981242,0.032299906,-0.012667344,0.07335374,-0.08932955,0.006326547,-0.110492386
still,0.065923035,-0.023182232,-0.026960898,0.09814639,0.09434445,-0.042822428,0.03691271,0.17911574,-0.043356355,0.011489913,-0.08304843,-0.03935677,0.020128231,0.06720301,-0.042395454,0.0013589448,-0.005983384,-0.014969679,-0.021265946,-0.1317094,0.048045345,-0.088036515,0.01625558,-0.00044031674,0.013893278,-0.01334592,0.05567256,-0.059487604,-0.089245565,0.0809647,0.095568255,0.06525581,0.018521419,0.0060859565,-0.038827594,0.07732505,0.070618175,-0.08169637,-0.07513932,-0.039856765,-0.091227256,-0.002568975,-0.046630006,-0.004280535,0.092512324,-0.0318435,0.03573016,-0.07745341,0.056853633,0.034476798,0.0575206,-0.043398246,-0.07639651,0.0012610636,0.09974319,-0.023626108,-0.044290025,-0.055226695,-0.07131513,0.0124635985,-0.009096828,0.015453069,-0.010832496,-0.07535955,-0.16405421,-0.019074181,0.005910295,0.13746673,-0.103575505,0.1441193,-0.012348336,-0.017460715,0.07897783,-0.028995723,0.03873915,0.037545316,0.08512016,-0.08101949,-0.10743987,0.0042318413,-0.011374488,-0.085919246,-0.11408548,0.15667023,-0.12670875,0.013941939,-0.027783364,0.08831121,0.057106588,-0.05717314,0.11063678,0.089636214,0.021484122,0.091752134,0.10632199,0.07248685,0.06424956,-0.009391997,0.029087864,0.03509477,-0.040266715,0.14497536,0.052763138,-0.08759897,-0.07025187,-0.09959784,0.04754498,0.11945686,-0.0901062,-0.06458765,-0.03088699,-0.1086435,-0.022802673,-0.06399478,0.03647944,-0.09640653,0.029392824,-0.15676512,-0.003993731,-0.10730551,-0.0032629045,0.13114929,0.060225964,-0.07065272,-0.03468851,0.05354628,-0.08946473,-0.07035409,-0.03532495,-0.04242924,0.057618253,0.03368928,-0.042801153,-0.0743384,0.019572824,0.13989356,-0.04542267,-0.06424749,-0.028105792,-0.11417786,0.10119173,-0.1396277,-0.032320898,0.020051574,0.00079258194,-0.038907025,-0.016461961,0.04865235,-0.007094767,-0.0046021678,0.044445343,-0.092505,0.0512216,0.03597851,-0.17603998,0.084429644,0.08652575,0.030043218,-0.039959244,0.08612858,0.022172995,0.0624348,0.049980164,-0.07255784,0.014089187,0.09699145,0.08276802,-0.040843602,-0.07161522,0.030677695,-0.11445966,0.028990913,0.014332127,-0.04352619,0.07321393,0.036413692,-0.1515304,0.060930602,-0.009899764,0.100425765,0.0072516566,0.031565614,-0.049878653,0.0069230613,0.0470848,0.08021788,-0.022112148,0.07069398,0.1420959,0.013973105,0.062305387,0.03854578,-0.06470639,-0.058368266,0.026648719,-0.025544366,0.08911789,-0.08690853,0.0006553072,-0.114070356
next,0.068498164,-0.02735782,-0.024520904,0.09322386,0.10267084,-0.04257271,0.028683426,0.169447,-0.040919565,0.023000991,-0.08672152,-0.039419457,0.021600919,0.07372568,-0.038767014,0.009075833,-0.018375091,-0.018248925,-0.020004507,-0.1317569,0.048788056,-0.08243379,0.024040919,9.556523e-06,0.019188372,-0.0108643295,0.05998815,-0.058779575,-0.080328494,0.07919714,0.10079027,0.0657166,0.023161905,0.008913661,-0.044475466,0.071853705,0.06690227,-0.081166476,-0.08013432,-0.04455938,-0.09318895,-0.0130374925,-0.05823449,-0.0057049016,0.08948084,-0.028272757,0.036773168,-0.0861144,0.057601854,0.037590023,0.055177115,-0.0482202,-0.070153005,0.008400969,0.10283971,-0.024099318,-0.04686543,-0.060789846,-0.07452388,0.012566358,-0.018245712,0.0077370047,-0.0062758233,-0.08091607,-0.17050388,-0.011683762,0.0025403681,0.12875596,-0.11507562,0.15043165,-0.00841803,-0.007082195,0.07635202,-0.024372878,0.030835211,0.03248317,0.09302492,-0.07900676,-0.11440209,0.009611573,-0.0048048105,-0.08289777,-0.10914694,0.14279155,-0.1375806,0.008267002,-0.02412808,0.09494379,0.056763213,-0.058849245,0.09910661,0.08781913,0.026381342,0.08395292,0.108891994,0.072484225,0.06878944,-0.0042474493,0.023834627,0.032043636,-0.062115207,0.14088474,0.054343577,-0.091777936,-0.07232756,-0.09647815,0.043296188,0.12442886,-0.08351855,-0.07064877,-0.026488867,-0.10596356,-0.017559301,-0.059703562,0.032835867,-0.09411017,0.031282444,-0.15630941,-0.0022242286,-0.108460724,0.0010483975,0.12502661,0.059708603,-0.07817811,-0.03472983,0.06052339,-0.08745585,-0.05442025,-0.038396664,-0.049937647,0.060860198,0.03179804,-0.0486898,-0.07026756,0.024141904,0.13394858,-0.050603375,-0.06326604,-0.022598514,-0.11579998,0.096236646,-0.14039755,-0.038275495,0.00948058,0.004748479,-0.04845297,-0.017208926,0.05819763,-0.009324245,-0.0048009227,0.04325774,-0.08332228,0.046698585,0.04386522,-0.17170818,0.09352793,0.090668716,0.04691931,-0.034384478,0.08276798,0.025391942,0.05964201,0.04737844,-0.076422565,0.005722776,0.0957451,0.07273576,-0.03921946,-0.06747641,0.030912826,-0.10528526,0.032051463,0.018032206,-0.04265777,0.07660591,0.03000486,-0.14052746,0.048471164,-0.00846387,0.10870476,0.0015331549,0.033306956,-0.038487636,0.015656142,0.056092877,0.084629916,-0.033153992,0.07516093,0.15280469,0.009697279,0.059358943,0.031939298,-0.0638634,-0.063336015,0.027319035,-0.017146349,0.0833286,-0.09350542,0.004183656,-0.11300744
say,0.0700627,-0.026898904,-0.029316567,0.10938159,0.094655775,-0.046334002,0.034754716,0.1894859,-0.047020946,0.012126082,-0.08720046,-0.040764607,0.018577598,0.06879399,-0.041944504,0.0026587115,-0.010997741,-0.013917863,-0.0210608,-0.13023877,0.04798774,-0.08902108,0.017074902,0.0033900319,0.009061849,-0.012910218,0.050342962,-0.063121684,-0.09400639,0.08671719,0.1000859,0.063277684,0.017868238,0.0057667056,-0.042711154,0.07653385,0.07297604,-0.07752338,-0.075354785,-0.04053325,-0.09152174,0.005338539,-0.05566575,-0.0094423415,0.08931468,-0.034249254,0.031930648,-0.07776684,0.059768718,0.03514462,0.05255096,-0.040462077,-0.07371594,-0.0034533397,0.105706826,-0.017509364,-0.044355158,-0.057463262,-0.07021551,0.014260928,-0.008157785,0.015171096,-0.016740516,-0.07068477,-0.16257083,-0.027286494,0.0026822793,0.1423309,-0.09747221,0.14831786,-0.0076945485,-0.020821286,0.079641834,-0.029190807,0.039294396,0.037428383,0.09014834,-0.07980642,-0.10970305,0.004120856,-0.014956124,-0.09258857,-0.1143115,0.16192386,-0.13583358,0.008275819,-0.026439592,0.08910725,0.05375253,-0.059964888,0.11153384,0.08638744,0.021620871,0.09352244,0.111404404,0.069216065,0.061742917,-0.0071379514,0.023792218,0.044240817,-0.035868388,0.14618693,0.053008664,-0.08474043,-0.06591233,-0.09819456,0.050849233,0.12385228,-0.08741382,-0.06472149,-0.029804038,-0.11080865,-0.02488222,-0.0558962,0.035057455,-0.08993483,0.028639475,-0.1551893,-0.0034705717,-0.1085046,-0.007788039,0.1271571,0.060517646,-0.074711494,-0.03128312,0.0515486,-0.08785696,-0.06955886,-0.03600499,-0.03460232,0.056261677,0.032129407,-0.041001227,-0.078599416,0.019194726,0.13373765,-0.042673375,-0.059832856,-0.0240854,-0.10873712,0.100718945,-0.14484295,-0.030784467,0.02449269,-0.0035632243,-0.03766338,-0.010591932,0.04689236,-0.007189232,0.001586401,0.03868476,-0.09325732,0.051535577,0.03854448,-0.16307373,0.08609363,0.08977861,0.02938017,-0.042148907,0.0856065,0.018838044,0.056160625,0.053203482,-0.06673588,0.01432288,0.09418029,0.08273106,-0.04570523,-0.07263425,0.036246795,-0.10720315,0.021089112,0.015450998,-0.051272795,0.0716656,0.027529696,-0.15167622,0.056811497,-0.0077222576,0.10172038,0.0031230631,0.038302958,-0.04826333,-0.0024756717,0.047016297,0.07310313,-0.02538189,0.07534953,0.13456872,0.014134401,0.06554115,0.03741264,-0.060033288,-0.053269494,0.024737613,-0.022477398,0.08590273,-0.08547628,-0.006631672,-0.10569134
another,0.0720606,-0.025006596,-0.024556804,0.09807065,0.10263992,-0.047207013,0.035862904,0.17651653,-0.043255195,0.01319222,-0.08414721,-0.044276476,0.022802822,0.076507896,-0.044318188,0.009358399,-0.015279009,-0.011494046,-0.023163429,-0.13484572,0.04716007,-0.084628336,0.02029968,-3.3382128e-06,0.012686851,-0.009799591,0.06029657,-0.061134543,-0.08822883,0.085937366,0.10277195,0.0613926,0.020873502,0.006558729,-0.040414594,0.07719952,0.067946926,-0.08006895,-0.07601299,-0.046238765,-0.09179848,-0.0063251844,-0.058964785,-0.0063031605,0.09073173,-0.029350331,0.03929634,-0.08333248,0.058198787,0.033190586,0.05748634,-0.049670983,-0.07023964,0.0059843655,0.10046442,-0.019369181,-0.052179016,-0.058953956,-0.07377972,0.012542473,-0.010839427,0.009175802,-0.009061539,-0.071766205,-0.16434336,-0.016182773,0.006433349,0.13290717,-0.11028555,0.14866005,-0.0063041225,-0.009179901,0.083414376,-0.029451158,0.035242874,0.03853905,0.08842332,-0.08142401,-0.10881996,0.005263616,-0.009351029,-0.085245565,-0.11463481,0.14984334,-0.13696618,0.0077740517,-0.022729158,0.09343937,0.057365254,-0.057423733,0.10688053,0.09046243,0.025477726,0.09059247,0.11151841,0.07031896,0.06588011,-0.008671437,0.027229518,0.034869924,-0.05085989,0.14420588,0.053821832,-0.085295565,-0.07205829,-0.094685234,0.04427032,0.11664775,-0.08173519,-0.06443008,-0.033003278,-0.11094541,-0.021055574,-0.05824086,0.031818874,-0.09083176,0.028047273,-0.15648025,-0.0020961144,-0.10679676,-0.0033051334,0.13064022,0.06294264,-0.076376535,-0.03923588,0.05472525,-0.0853773,-0.06268099,-0.036836714,-0.04534926,0.061512455,0.03063025,-0.04279456,-0.07056629,0.02046845,0.13476044,-0.04962338,-0.06556175,-0.023228891,-0.11069614,0.099608496,-0.14229262,-0.030823734,0.013383076,-0.00060283847,-0.040462874,-0.016216394,0.05428297,-0.009324895,-0.0050707557,0.048305213,-0.08815193,0.051050264,0.0382196,-0.17108531,0.09025963,0.093273275,0.037264924,-0.041448545,0.08276986,0.021610713,0.06335325,0.04564292,-0.06963924,0.013006844,0.091166794,0.077518314,-0.03793384,-0.071713924,0.030816954,-0.104319744,0.027114786,0.012722049,-0.043494523,0.079030424,0.032512683,-0.1470456,0.05226451,-0.0048266286,0.102411486,-0.0011245997,0.032628052,-0.044066016,0.01148949,0.053763434,0.07626422,-0.02708477,0.07359489,0.1422879,0.0101198815,0.06315956,0.0348791,-0.06395379,-0.061802752,0.023704566,-0.018456988,0.0813094,-0.088383466,0.0050199917,-0.10989505
wrong,0.07202977,-0.017659286,-0.024001902,0.0896805,0.0981853,-0.03537419,0.021344181,0.16833156,-0.043263976,0.024558565,-0.094727166,-0.048566688,0.021316955,0.068122834,-0.03133895,0.008969894,-0.016916895,-0.021161443,-0.019180328,-0.12331558,0.038628936,-0.0929701,0.02269741,-0.006344848,0.014839612,-0.006411256,0.06638377,-0.058851358,-0.08358725,0.07533613,0.096174106,0.07063205,0.016784994,0.0111867795,-0.045015775,0.07197896,0.0725917,-0.080436476,-0.081497476,-0.03200818,-0.097363934,-0.0034398937,-0.06330089,-0.013167033,0.083584525,-0.027931826,0.04514158,-0.077299915,0.056228615,0.03255084,0.060219347,-0.047536485,-0.06567421,0.0033104469,0.10395759,-0.025267301,-0.047243584,-0.054655347,-0.06446236,0.016407406,-0.0035174736,0.014686006,-0.013916075,-0.08221806,-0.16310763,-0.015503828,-0.00023379237,0.1301822,-0.11105735,0.15402262,-0.008129618,-0.009670645,0.07617455,-0.03142337,0.026861593,0.026331041,0.08950809,-0.075258665,-0.10133052,0.0063149557,-0.006533282,-0.091354884,-0.1138277,0.13588707,-0.13482174,0.002624805,-0.02280422,0.08725329,0.06205205,-0.062319454,0.10002549,0.09022475,0.031448867,0.09235693,0.10721719,0.062974945,0.06782836,0.0013315164,0.016857684,0.035187136,-0.05012207,0.14212002,0.04979049,-0.092608236,-0.066199556,-0.092351794,0.047474165,0.121617444,-0.08186527,-0.067608,-0.024887072,-0.10587683,-0.013935883,-0.06025262,0.03185649,-0.10190454,0.028671604,-0.14988165,0.0044147237,-0.10963006,0.0004952365,0.1304197,0.05191874,-0.06352974,-0.037070252,0.06314206,-0.08900967,-0.06360877,-0.032943178,-0.050605677,0.05729813,0.036443602,-0.04814155,-0.071630634,0.024695681,0.13677946,-0.05230345,-0.060907044,-0.022190893,-0.107840575,0.10094301,-0.13299933,-0.03797773,0.020437848,0.003016103,-0.045437902,-0.018978193,0.05946099,-0.0066414764,-0.0007426787,0.03902962,-0.09232997,0.059100416,0.043476228,-0.17693868,0.08665802,0.09091615,0.047633868,-0.0322552,0.08512995,0.020900229,0.06568416,0.05506709,-0.0777839,0.008855127,0.10066289,0.06776891,-0.03706428,-0.069564745,0.02792181,-0.11957337,0.0354328,0.02243734,-0.048925955,0.08127957,0.021425352,-0.14743313,0.06047135,-0.009529797,0.11108194,0.013607515,0.042774472,-0.045163557,0.015853126,0.05159503,0.086693875,-0.03397702,0.07273622,0.15000188,0.01483362,0.06034413,0.03579671,-0.06609583,-0.055657897,0.030599987,-0.017628288,0.09429252,-0.093270175,0.005790705,-0.122400135
